{"learner":{"attributes":{},"feature_names":["3","4","5","6","8","9","12","17","18","19","20","22","23","25","26","31","32","33","34","35","36","37","39","40","45","46","47","48","49","50","51","53","54","59","60","61","62","64","65","66","68","69","74","75","76","77","79","80","81","83","84","89","90","91","92","94","95","96","98","99","104","105","106","107","108","109","111","112","113","114","115","116","117","118","119","120","121","122","123","124","125","126","127","128","129","130","131"],"feature_types":["int","int","int","int","int","int","int","int","int","int","int","int","int","int","int","int","int","int","int","int","int","int","int","int","int","int","int","int","int","int","int","int","int","int","int","int","int","int","int","int","int","int","int","int","int","int","int","int","int","int","int","int","int","int","int","int","int","int","int","int","int","int","int","int","int","int","int","int","int","int","int","int","int","int","int","int","int","int","int","int","int","int","int","int","int","int","int"],"gradient_booster":{"model":{"gbtree_model_param":{"num_parallel_tree":"1","num_trees":"10"},"iteration_indptr":[0,1,2,3,4,5,6,7,8,9,10],"tree_info":[0,0,0,0,0,0,0,0,0,0],"trees":[{"base_weights":[-2.2100955E-6,-2.3732595E0,1.0270265E1,-1.1536151E1,-1.7061256E-2,1.349725E1,-1.8865315E-2,-1.2253146E1,2.7262777E1,1.9996648E0,-5.359721E0,1.5557817E1,6.4839945E0,4.1654935E0,-8.52972E0,-3.583542E1,-1.1144268E1,2.5786764E1,1.947061E1,3.580104E0,-3.7781675E0,3.66007E0,-7.333748E0,1.5386377E1,1.2809015E1,3.7769563E0,1.0288932E1,1.8372213E0,1.647933E1,-7.204566E0,-1.5257457E1,-3.383815E1,-5.13352E1,-1.1968526E1,-6.0147005E-1,2.5923138E1,-7.136471E0,3.3933089E0,3.567631E1,-1.5093461E1,-3.060848E0,-3.2339447E0,1.3005162E1,-9.06663E0,-3.253509E0,1.6881144E1,1.2091061E1,5.6811647E0,2.202935E0,1.326942E1,6.38608E0,2.737588E0,-2.4180792E1,1.6512606E1,3.3433697E0,-9.353897E0,-3.5414848E0,-1.8158401E1,-1.0444785E1,-8.954955E0,-1.3205073E1,-1.7926311E1,-1.4995986E1,-3.4957662E0,-9.630278E0,6.498959E-1,-3.0974705E0,6.9521127E0,8.517757E0,1.530657E0,3.7465417E-1,9.820477E0,1.1062172E1,-4.10994E0,-6.2675023E0,2.7262037E0,-9.937082E-1,6.4681953E-1,-1.506955E0,4.495644E0,-2.457353E0,-3.5045223E0,-1.9836915E0,-1.7286074E0,3.0132484E-1,4.183479E0,5.7208037E0,3.7104728E0,-2.08892E0,1.3968905E0,2.684726E0,-2.5113764E-1,9.7424155E-1,2.645994E0,4.3734636E0,2.572591E0,9.729862E-1,-1.2536483E0,1.3085507E0,-5.261869E0,-1.1196196E1,4.9730687E0,4.292817E0,-1.7202721E0,-2.9732134E0,-7.23819E-1,-2.6509545E0,-4.0832815E0,-6.20725E0,-2.953305E0,-6.4172597E0],"categories":[],"categories_nodes":[],"categories_segments":[],"categories_sizes":[],"default_left":[0,0,0,0,0,0,0,0,0,0,0,0,0,0,0,0,0,0,0,0,0,0,0,0,0,0,0,0,0,0,0,0,0,0,0,0,0,0,0,0,0,0,0,0,0,0,0,0,0,0,0,0,0,0,0,0,0,0,0,0,0,0,0,0,0,0,0,0,0,0,0,0,0,0,0,0,0,0,0,0,0,0,0,0,0,0,0,0,0,0,0,0,0,0,0,0,0,0,0,0,0,0,0,0,0,0,0,0,0,0,0],"id":0,"left_children":[1,3,5,7,9,11,13,15,17,19,21,23,25,27,29,31,33,35,-1,37,39,41,43,45,-1,47,49,51,53,55,57,59,61,63,65,67,-1,69,71,73,75,77,79,81,83,85,87,89,91,93,95,97,99,101,-1,103,105,107,109,-1,-1,-1,-1,-1,-1,-1,-1,-1,-1,-1,-1,-1,-1,-1,-1,-1,-1,-1,-1,-1,-1,-1,-1,-1,-1,-1,-1,-1,-1,-1,-1,-1,-1,-1,-1,-1,-1,-1,-1,-1,-1,-1,-1,-1,-1,-1,-1,-1,-1,-1,-1],"loss_changes":[1.0637246E7,7.653509E6,2.719914E6,2.017518E6,3.0383528E6,9.0108E5,6.965799E5,1.861391E6,7.143819E4,1.8693712E6,1.3759318E6,2.23595E5,1.4584156E5,3.7591897E5,5.7366906E4,9.723275E4,5.9092E5,9.18925E3,0E0,9.6361825E5,3.568443E5,8.940061E5,4.48245E5,2.35724E5,0E0,2.479586E4,6.839525E4,2.5842878E5,1.86125E2,4.238753E4,1.46093125E4,1.1377575E5,1.1345625E3,4.00831E5,1.3275439E5,7.930625E3,0E0,5.85664E5,2.069E3,2.0893438E4,1.2637184E5,7.7027914E4,2.4740038E5,2.8553875E5,2.0188869E5,2.11426E5,7.9044E4,1.2500977E4,1.4397057E4,1.9304062E4,1.7523766E4,1.1978357E5,3.1546156E4,5.59375E1,0E0,6.7857188E3,1.18964E4,7.319047E3,2.4249648E3,0E0,0E0,0E0,0E0,0E0,0E0,0E0,0E0,0E0,0E0,0E0,0E0,0E0,0E0,0E0,0E0,0E0,0E0,0E0,0E0,0E0,0E0,0E0,0E0,0E0,0E0,0E0,0E0,0E0,0E0,0E0,0E0,0E0,0E0,0E0,0E0,0E0,0E0,0E0,0E0,0E0,0E0,0E0,0E0,0E0,0E0,0E0,0E0,0E0,0E0,0E0,0E0],"parents":[2147483647,0,0,1,1,2,2,3,3,4,4,5,5,6,6,7,7,8,8,9,9,10,10,11,11,12,12,13,13,14,14,15,15,16,16,17,17,19,19,20,20,21,21,22,22,23,23,25,25,26,26,27,27,28,28,29,29,30,30,31,31,32,32,33,33,34,34,35,35,37,37,38,38,39,39,40,40,41,41,42,42,43,43,44,44,45,45,46,46,47,47,48,48,49,49,50,50,51,51,52,52,53,53,55,55,56,56,57,57,58,58],"right_children":[2,4,6,8,10,12,14,16,18,20,22,24,26,28,30,32,34,36,-1,38,40,42,44,46,-1,48,50,52,54,56,58,60,62,64,66,68,-1,70,72,74,76,78,80,82,84,86,88,90,92,94,96,98,100,102,-1,104,106,108,110,-1,-1,-1,-1,-1,-1,-1,-1,-1,-1,-1,-1,-1,-1,-1,-1,-1,-1,-1,-1,-1,-1,-1,-1,-1,-1,-1,-1,-1,-1,-1,-1,-1,-1,-1,-1,-1,-1,-1,-1,-1,-1,-1,-1,-1,-1,-1,-1,-1,-1,-1,-1],"split_conditions":[1E0,1E0,1E0,1E0,1E0,8E0,9E0,1E0,2E0,1E0,6E0,1E0,2E0,1E0,1E0,1E0,1E0,1E0,1.947061E1,1E0,1E0,1E0,1E0,4E0,1.2809015E1,1E0,1E0,1E0,1E0,1E0,2E0,1E0,4E0,1E0,1E0,1E1,-7.136471E0,1E0,1E0,1E0,6E0,1E0,1E0,2E0,2E0,6E0,1E0,1E0,1E0,1E0,1E0,1E0,1E0,1E0,3.3433697E0,5E0,1E0,1E0,2E0,-8.954955E0,-1.3205073E1,-1.7926311E1,-1.4995986E1,-3.4957662E0,-9.630278E0,6.498959E-1,-3.0974705E0,6.9521127E0,8.517757E0,1.530657E0,3.7465417E-1,9.820477E0,1.1062172E1,-4.10994E0,-6.2675023E0,2.7262037E0,-9.937082E-1,6.4681953E-1,-1.506955E0,4.495644E0,-2.457353E0,-3.5045223E0,-1.9836915E0,-1.7286074E0,3.0132484E-1,4.183479E0,5.7208037E0,3.7104728E0,-2.08892E0,1.3968905E0,2.684726E0,-2.5113764E-1,9.7424155E-1,2.645994E0,4.3734636E0,2.572591E0,9.729862E-1,-1.2536483E0,1.3085507E0,-5.261869E0,-1.1196196E1,4.9730687E0,4.292817E0,-1.7202721E0,-2.9732134E0,-7.23819E-1,-2.6509545E0,-4.0832815E0,-6.20725E0,-2.953305E0,-6.4172597E0],"split_indices":[1,3,13,0,8,69,69,2,0,12,69,0,85,41,8,38,41,13,0,0,2,22,22,75,0,77,66,38,7,14,84,35,69,38,8,73,0,75,17,38,69,16,37,10,10,70,37,44,9,61,77,78,4,22,0,73,34,45,8,0,0,0,0,0,0,0,0,0,0,0,0,0,0,0,0,0,0,0,0,0,0,0,0,0,0,0,0,0,0,0,0,0,0,0,0,0,0,0,0,0,0,0,0,0,0,0,0,0,0,0,0],"split_type":[0,0,0,0,0,0,0,0,0,0,0,0,0,0,0,0,0,0,0,0,0,0,0,0,0,0,0,0,0,0,0,0,0,0,0,0,0,0,0,0,0,0,0,0,0,0,0,0,0,0,0,0,0,0,0,0,0,0,0,0,0,0,0,0,0,0,0,0,0,0,0,0,0,0,0,0,0,0,0,0,0,0,0,0,0,0,0,0,0,0,0,0,0,0,0,0,0,0,0,0,0,0,0,0,0,0,0,0,0,0,0],"sum_hessian":[4.36416E5,3.54499E5,8.1917E4,7.2511E4,2.81988E5,6.2359E4,1.9558E4,7.1196E4,1.315E3,2.04714E5,7.7274E4,4.8197E4,1.4162E4,1.3112E4,6.446E3,3.196E3,6.8E4,1.267E3,4.8E1,1.60745E5,4.3969E4,1.3875E4,6.3399E4,4.7896E4,3.01E2,8.276E3,5.886E3,1.1028E4,2.084E3,5.387E3,1.059E3,2.834E3,3.62E2,6.3069E4,4.931E3,1.264E3,3E0,1.59816E5,9.29E2,2.62E3,4.1349E4,7.985E3,5.89E3,4.4499E4,1.89E4,3.2947E4,1.4949E4,3.744E3,4.532E3,3.336E3,2.55E3,1.066E4,3.68E2,2.069E3,1.5E1,3.394E3,1.993E3,6.59E2,4E2,2.039E3,7.95E2,4.4E1,3.18E2,6.2096E4,9.73E2,3.839E3,1.092E3,6.03E2,6.61E2,8.894E4,7.0876E4,2.77E2,6.52E2,2.115E3,5.05E2,8.38E2,4.0511E4,1.99E3,5.995E3,5.387E3,5.03E2,2.1542E4,2.2957E4,1.1893E4,7.007E3,1.4072E4,1.8875E4,1.4735E4,2.14E2,2.852E3,8.92E2,1.159E3,3.373E3,7.6E2,2.576E3,1.502E3,1.048E3,2.027E3,8.633E3,2.46E2,1.22E2,2.004E3,6.5E1,4.54E2,2.94E3,1.644E3,3.49E2,2.38E2,4.21E2,3.81E2,1.9E1],"tree_param":{"num_deleted":"0","num_feature":"87","num_nodes":"111","size_leaf_vector":"1"}},{"base_weights":[-6.189688E-5,-1.6613791E0,7.1892853E0,-8.075897E0,-1.1913363E-2,9.448712E0,-1.48163745E-2,-8.578195E0,1.910507E1,1.399834E0,-3.7518792E0,1.1053317E1,4.6957645E0,2.9155579E0,-5.9751053E0,-2.510202E1,-7.801217E0,1.8057304E1,1.3748635E1,2.5062146E0,-2.644916E0,2.5621352E0,-5.133733E0,-6.8125534E0,1.1185495E1,1.4787059E0,6.5379767E0,1.2845695E0,1.1541579E1,-5.044694E0,-1.0698765E1,-2.738944E1,-1.6114065E1,-6.1702976E0,-1.2040711E1,1.8595234E1,9.49537E0,2.3753283E0,2.499587E1,-1.0569383E1,-2.142554E0,-2.2638667E0,9.10396E0,-4.591215E0,-1.3135571E1,7.231615E-1,-1.1302296E1,9.968861E0,1.286909E1,2.0086665E0,-5.688228E0,5.9443226E0,1.5457044E1,1.9163185E0,-1.6971153E1,1.175601E1,3.2969983E0,-6.54911E0,-2.4807343E0,-7.7770147E0,-1.3414384E1,-7.834032E0,-1.2075951E1,-7.7402554E0,-2.869565E0,-1.2302233E0,-3.261544E0,-4.98384E0,-1.7438884E0,5.870964E0,4.1251316E0,3.1931455E0,2.209147E-1,7.760102E-1,-3.2893915E0,7.5374374E0,2.7034457E0,-3.9843516E0,-2.6297133E0,-5.995415E-1,-4.0158806E0,-5.024032E-1,-5.470987E0,4.2147546E0,1.1912745E0,-1.7609937E0,-4.6762374E-1,-3.8449237E0,-6.6298804E0,2.1688547E0,-1.3991585E-1,-4.123967E0,-3.0665896E0,2.9624877E0,8.899088E0,5.023015E0,3.2162228E0,6.6867566E-1,-4.0439434E0,-3.2314844E0,2.4904855E-1,1.7314093E0,7.9530106E0,7.394815E0,4.33063E0,7.7613056E-1,-3.9930735E0,-7.356971E0,-3.3409114E0,3.3176441E0,3.5966122E0,-1.8487071E0,-3.3508499E0,-3.7047526E-1,-2.0519135E0,-5.100187E0,-1.9964538E0,-6.731384E0,-3.6901495E0],"categories":[],"categories_nodes":[],"categories_segments":[],"categories_sizes":[],"default_left":[0,0,0,0,0,0,0,0,0,0,0,0,0,0,0,0,0,0,0,0,0,0,0,0,0,0,0,0,0,0,0,0,0,0,0,0,0,0,0,0,0,0,0,0,0,0,0,0,0,0,0,0,0,0,0,0,0,0,0,0,0,0,0,0,0,0,0,0,0,0,0,0,0,0,0,0,0,0,0,0,0,0,0,0,0,0,0,0,0,0,0,0,0,0,0,0,0,0,0,0,0,0,0,0,0,0,0,0,0,0,0,0,0,0,0,0,0,0,0],"id":1,"left_children":[1,3,5,7,9,11,13,15,17,19,21,23,25,27,29,31,33,35,-1,37,39,41,43,45,47,49,51,53,55,57,59,61,63,65,67,69,71,73,75,77,79,81,83,85,87,89,91,93,95,97,99,101,103,105,107,109,-1,111,113,115,117,-1,-1,-1,-1,-1,-1,-1,-1,-1,-1,-1,-1,-1,-1,-1,-1,-1,-1,-1,-1,-1,-1,-1,-1,-1,-1,-1,-1,-1,-1,-1,-1,-1,-1,-1,-1,-1,-1,-1,-1,-1,-1,-1,-1,-1,-1,-1,-1,-1,-1,-1,-1,-1,-1,-1,-1,-1,-1],"loss_changes":[5.2124835E6,3.750797E6,1.3333905E6,9.901655E5,1.4888754E6,4.75544E5,3.416325E5,9.13877E5,3.6020656E4,9.161131E5,6.7424075E5,1.10168E5,9.327944E4,1.8447119E5,2.828025E4,6.5286375E4,4.701035E5,5.6635E3,0E0,4.731113E5,1.7501978E5,4.3809788E5,2.7516788E5,1.1613038E4,9.4664E4,2.1786469E4,5.2904156E4,1.27230375E5,1.1740625E2,2.0766672E4,8.306102E3,4.0755625E4,4.105089E4,4.778075E5,5.37802E5,5.3594375E3,7.667241E2,4.506643E5,1.69E3,1.2703344E4,6.696122E4,7.512555E4,1.494816E5,2.3023988E5,1.1232125E4,1.0017825E3,4.2721484E2,4.939775E4,1.6137625E5,1.8243346E4,1.3097462E4,3.3233125E4,5.504172E3,1.0892292E5,1.5986797E4,1.0865625E2,0E0,5.9978594E3,1.0819944E4,5.1966387E3,5.2320703E3,0E0,0E0,0E0,0E0,0E0,0E0,0E0,0E0,0E0,0E0,0E0,0E0,0E0,0E0,0E0,0E0,0E0,0E0,0E0,0E0,0E0,0E0,0E0,0E0,0E0,0E0,0E0,0E0,0E0,0E0,0E0,0E0,0E0,0E0,0E0,0E0,0E0,0E0,0E0,0E0,0E0,0E0,0E0,0E0,0E0,0E0,0E0,0E0,0E0,0E0,0E0,0E0,0E0,0E0,0E0,0E0,0E0,0E0],"parents":[2147483647,0,0,1,1,2,2,3,3,4,4,5,5,6,6,7,7,8,8,9,9,10,10,11,11,12,12,13,13,14,14,15,15,16,16,17,17,19,19,20,20,21,21,22,22,23,23,24,24,25,25,26,26,27,27,28,28,29,29,30,30,31,31,32,32,33,33,34,34,35,35,36,36,37,37,38,38,39,39,40,40,41,41,42,42,43,43,44,44,45,45,46,46,47,47,48,48,49,49,50,50,51,51,52,52,53,53,54,54,55,55,57,57,58,58,59,59,60,60],"right_children":[2,4,6,8,10,12,14,16,18,20,22,24,26,28,30,32,34,36,-1,38,40,42,44,46,48,50,52,54,56,58,60,62,64,66,68,70,72,74,76,78,80,82,84,86,88,90,92,94,96,98,100,102,104,106,108,110,-1,112,114,116,118,-1,-1,-1,-1,-1,-1,-1,-1,-1,-1,-1,-1,-1,-1,-1,-1,-1,-1,-1,-1,-1,-1,-1,-1,-1,-1,-1,-1,-1,-1,-1,-1,-1,-1,-1,-1,-1,-1,-1,-1,-1,-1,-1,-1,-1,-1,-1,-1,-1,-1,-1,-1,-1,-1,-1,-1,-1,-1],"split_conditions":[1E0,1E0,1E0,1E0,1E0,1E1,9E0,1E0,2E0,1E0,6E0,2E0,1E0,1E0,1E0,1E0,1E0,1E0,1.3748635E1,1E0,1E0,1E0,1E0,1E0,1E0,2E0,2E0,1E0,3E0,1E0,9E0,2E0,1E0,1E0,1E0,1E0,1E0,1E0,1E0,1E0,1E0,1E0,4E0,1E0,2E0,3E0,1E0,1E0,1E0,1E0,1E0,1E0,1E1,1E0,1E0,1E0,3.2969983E0,2.9E1,1E1,5E0,1E0,-7.834032E0,-1.2075951E1,-7.7402554E0,-2.869565E0,-1.2302233E0,-3.261544E0,-4.98384E0,-1.7438884E0,5.870964E0,4.1251316E0,3.1931455E0,2.209147E-1,7.760102E-1,-3.2893915E0,7.5374374E0,2.7034457E0,-3.9843516E0,-2.6297133E0,-5.995415E-1,-4.0158806E0,-5.024032E-1,-5.470987E0,4.2147546E0,1.1912745E0,-1.7609937E0,-4.6762374E-1,-3.8449237E0,-6.6298804E0,2.1688547E0,-1.3991585E-1,-4.123967E0,-3.0665896E0,2.9624877E0,8.899088E0,5.023015E0,3.2162228E0,6.6867566E-1,-4.0439434E0,-3.2314844E0,2.4904855E-1,1.7314093E0,7.9530106E0,7.394815E0,4.33063E0,7.7613056E-1,-3.9930735E0,-7.356971E0,-3.3409114E0,3.3176441E0,3.5966122E0,-1.8487071E0,-3.3508499E0,-3.7047526E-1,-2.0519135E0,-5.100187E0,-1.9964538E0,-6.731384E0,-3.6901495E0],"split_indices":[1,3,13,0,8,75,69,2,0,12,69,70,84,41,8,22,8,8,0,0,2,22,34,7,61,8,1,38,54,14,73,6,39,34,22,34,6,11,43,10,7,12,70,22,84,76,26,0,66,7,22,0,73,37,5,27,0,75,75,75,77,0,0,0,0,0,0,0,0,0,0,0,0,0,0,0,0,0,0,0,0,0,0,0,0,0,0,0,0,0,0,0,0,0,0,0,0,0,0,0,0,0,0,0,0,0,0,0,0,0,0,0,0,0,0,0,0,0,0],"split_type":[0,0,0,0,0,0,0,0,0,0,0,0,0,0,0,0,0,0,0,0,0,0,0,0,0,0,0,0,0,0,0,0,0,0,0,0,0,0,0,0,0,0,0,0,0,0,0,0,0,0,0,0,0,0,0,0,0,0,0,0,0,0,0,0,0,0,0,0,0,0,0,0,0,0,0,0,0,0,0,0,0,0,0,0,0,0,0,0,0,0,0,0,0,0,0,0,0,0,0,0,0,0,0,0,0,0,0,0,0,0,0,0,0,0,0,0,0,0,0],"sum_hessian":[4.36416E5,3.54499E5,8.1917E4,7.2511E4,2.81988E5,6.2359E4,1.9558E4,7.1196E4,1.315E3,2.04714E5,7.7274E4,4.6619E4,1.574E4,1.3112E4,6.446E3,3.196E3,6.8E4,1.267E3,4.8E1,1.60745E5,4.3969E4,1.3875E4,6.3399E4,3.42E2,4.6277E4,5.732E3,1.0008E4,1.1028E4,2.084E3,5.387E3,1.059E3,2.546E3,6.5E2,4.911E4,1.889E4,1.191E3,7.6E1,1.59816E5,9.29E2,2.62E3,4.1349E4,7.985E3,5.89E3,5.9375E4,4.024E3,1.28E2,2.14E2,2.6868E4,1.9409E4,5.338E3,3.94E2,9.385E3,6.23E2,1.066E4,3.68E2,1.486E3,5.98E2,3.394E3,1.993E3,5.12E2,5.47E2,2.319E3,2.27E2,2.61E2,3.89E2,3.4101E4,1.5009E4,1.0892E4,7.998E3,9.89E2,2.02E2,6.7E1,9E0,1.57324E5,2.492E3,9.21E2,8E0,1.044E3,1.576E3,4.0827E4,5.22E2,7.702E3,2.83E2,2.999E3,2.891E3,4.1763E4,1.7612E4,3.888E3,1.36E2,1.9E1,1.09E2,6.2E1,1.52E2,2.6742E4,1.26E2,6.921E3,1.2488E4,5.264E3,7.4E1,2.21E2,1.73E2,9.308E3,7.7E1,6E1,5.63E2,1.0211E4,4.49E2,1.59E2,2.09E2,3.84E2,1.102E3,3.134E3,2.6E2,1.551E3,4.42E2,5.4E1,4.58E2,5.8E1,4.89E2],"tree_param":{"num_deleted":"0","num_feature":"87","num_nodes":"119","size_leaf_vector":"1"}},{"base_weights":[-1.1197296E-4,-1.1630532E0,5.0325136E0,-5.6533284E0,-8.398175E-3,6.614579E0,-1.1845861E-2,-6.0053215E0,1.3394187E1,9.798678E-1,-2.6264875E0,8.254268E0,4.175482E0,2.0406082E0,-4.1864724E0,-1.9851225E1,-5.546758E0,1.2650689E1,3.236073E1,1.7543999E0,-1.8516973E0,1.7934538E0,-3.593814E0,7.522967E0,1.09862175E1,2.7256632E0,6.127224E0,2.4245894E0,-1.6302446E1,-2.9323258E0,-5.9697366E0,-1.8253374E1,-2.8275587E1,-6.0961065E0,1.5813043E0,7.9373465E0,1.3525906E1,9.902171E0,3.433571E0,2.5442977E0,-1.4507767E0,-7.40109E0,-1.4999002E0,-1.5854547E0,6.3736897E0,-5.0907216E0,-1.9233913E0,-4.7838354E0,7.6678824E0,8.118662E0,1.3074796E1,4.531537E0,1.4725474E-1,5.8294835E0,2.377029E1,-3.6385198E0,3.5616539E0,-2.4130138E1,-1.4131175E1,-3.965238E0,1.2209927E0,-9.704339E0,-4.665088E0,-4.9950423E0,-8.423955E0,-1.0262054E1,-8.157885E0,-1.7617755E0,-6.1605964E0,-7.7787834E-1,8.808144E-1,2.5557015E0,-6.8517303E0,3.4716055E0,4.6923E0,2.4259229E0,6.421919E-1,-4.2146864E0,-3.6052248E-1,-2.6079023E0,-1.2971655E0,2.0914083E0,-5.025907E-1,-1.4158693E-1,-2.8415644E0,2.2540147E0,-3.270458E0,-2.7764268E0,-9.436257E-1,-8.6033565E-1,3.512071E-1,1.5658233E-1,-2.3835154E0,2.758885E0,1.957012E0,2.1188824E0,3.1069987E0,4.3632402E0,3.8440528E0,1.5454819E0,3.2039174E-1,2.3661825E-1,-1.4919262E0,1.5546188E0,3.6725516E0,5.8108616E0,8.460503E0,-5.8477085E-2,-1.5524606E0,1.221095E0,-3.406024E0,-1.1570735E1,-6.600019E0,-3.7182848E0,-6.5411577E0,4.0529704E-1,-1.4058754E0,4.5544755E-1,1.1492739E-1,-2.2449107E0,-3.32093E0,-4.1568574E-1,-1.7032759E0],"categories":[],"categories_nodes":[],"categories_segments":[],"categories_sizes":[],"default_left":[0,0,0,0,0,0,0,0,0,0,0,0,0,0,0,0,0,0,0,0,0,0,0,0,0,0,0,0,0,0,0,0,0,0,0,0,0,0,0,0,0,0,0,0,0,0,0,0,0,0,0,0,0,0,0,0,0,0,0,0,0,0,0,0,0,0,0,0,0,0,0,0,0,0,0,0,0,0,0,0,0,0,0,0,0,0,0,0,0,0,0,0,0,0,0,0,0,0,0,0,0,0,0,0,0,0,0,0,0,0,0,0,0,0,0,0,0,0,0,0,0,0,0],"id":2,"left_children":[1,3,5,7,9,11,13,15,17,19,21,23,25,27,29,31,33,35,37,39,41,43,45,47,49,51,53,55,57,59,61,63,65,67,69,71,73,-1,-1,75,77,79,81,83,85,87,89,91,93,95,97,99,101,103,105,107,109,111,113,115,117,119,121,-1,-1,-1,-1,-1,-1,-1,-1,-1,-1,-1,-1,-1,-1,-1,-1,-1,-1,-1,-1,-1,-1,-1,-1,-1,-1,-1,-1,-1,-1,-1,-1,-1,-1,-1,-1,-1,-1,-1,-1,-1,-1,-1,-1,-1,-1,-1,-1,-1,-1,-1,-1,-1,-1,-1,-1,-1,-1,-1,-1],"loss_changes":[2.5542008E6,1.8379828E6,6.5374725E5,4.862445E5,7.296121E5,2.4936575E5,1.6759452E5,4.519355E5,1.8148297E4,4.489715E5,3.3039762E5,7.441825E4,7.092603E4,9.239953E4,1.4401039E4,3.0201562E4,2.6987025E5,5.1233906E3,2.848047E2,4.0697428E5,8.582978E4,2.1475783E5,1.5851988E5,5.2503875E4,4.7040125E4,6.698925E4,5.599022E4,8.856826E4,4.2309453E3,1.6251123E4,1.2920031E4,2.9796188E4,1.3943438E3,2.063895E5,2.7898139E4,3.792746E3,4.232672E3,0E0,0E0,2.8849044E5,9.969876E4,1.03821875E4,6.145267E4,7.0124766E4,1.16066516E5,2.7081275E5,8.756207E4,5.757183E3,5.0803375E4,7.771047E3,1.5615625E3,1.816575E4,1.9471508E4,4.3564594E4,2.9054922E3,1.0733541E4,8.211191E4,9.045742E2,2.5683281E3,1.1632031E4,1.8741016E2,2.0038906E3,6.546715E3,0E0,0E0,0E0,0E0,0E0,0E0,0E0,0E0,0E0,0E0,0E0,0E0,0E0,0E0,0E0,0E0,0E0,0E0,0E0,0E0,0E0,0E0,0E0,0E0,0E0,0E0,0E0,0E0,0E0,0E0,0E0,0E0,0E0,0E0,0E0,0E0,0E0,0E0,0E0,0E0,0E0,0E0,0E0,0E0,0E0,0E0,0E0,0E0,0E0,0E0,0E0,0E0,0E0,0E0,0E0,0E0,0E0,0E0,0E0,0E0],"parents":[2147483647,0,0,1,1,2,2,3,3,4,4,5,5,6,6,7,7,8,8,9,9,10,10,11,11,12,12,13,13,14,14,15,15,16,16,17,17,18,18,19,19,20,20,21,21,22,22,23,23,24,24,25,25,26,26,27,27,28,28,29,29,30,30,31,31,32,32,33,33,34,34,35,35,36,36,39,39,40,40,41,41,42,42,43,43,44,44,45,45,46,46,47,47,48,48,49,49,50,50,51,51,52,52,53,53,54,54,55,55,56,56,57,57,58,58,59,59,60,60,61,61,62,62],"right_children":[2,4,6,8,10,12,14,16,18,20,22,24,26,28,30,32,34,36,38,40,42,44,46,48,50,52,54,56,58,60,62,64,66,68,70,72,74,-1,-1,76,78,80,82,84,86,88,90,92,94,96,98,100,102,104,106,108,110,112,114,116,118,120,122,-1,-1,-1,-1,-1,-1,-1,-1,-1,-1,-1,-1,-1,-1,-1,-1,-1,-1,-1,-1,-1,-1,-1,-1,-1,-1,-1,-1,-1,-1,-1,-1,-1,-1,-1,-1,-1,-1,-1,-1,-1,-1,-1,-1,-1,-1,-1,-1,-1,-1,-1,-1,-1,-1,-1,-1,-1,-1,-1,-1],"split_conditions":[1E0,1E0,1E0,1E0,1E0,6E0,9E0,6E0,2E0,1E0,6E0,8E0,2E0,2E0,1E1,1E0,1E0,1E0,1E0,1E0,1E0,1E0,2E0,2E0,2E0,1E0,1E0,1E0,1E0,3E0,1.3E1,2E0,5E0,1E0,1E0,1E0,1E0,9.902171E0,3.433571E0,2E0,5E0,1E0,6E0,1E0,1E0,1E0,1E0,1E0,6E0,1.1E1,1E0,2.1E1,2E0,2E0,1E0,1E0,1E0,2E0,2E0,3E0,6E0,1.1E1,1.4E1,-4.9950423E0,-8.423955E0,-1.0262054E1,-8.157885E0,-1.7617755E0,-6.1605964E0,-7.7787834E-1,8.808144E-1,2.5557015E0,-6.8517303E0,3.4716055E0,4.6923E0,2.4259229E0,6.421919E-1,-4.2146864E0,-3.6052248E-1,-2.6079023E0,-1.2971655E0,2.0914083E0,-5.025907E-1,-1.4158693E-1,-2.8415644E0,2.2540147E0,-3.270458E0,-2.7764268E0,-9.436257E-1,-8.6033565E-1,3.512071E-1,1.5658233E-1,-2.3835154E0,2.758885E0,1.957012E0,2.1188824E0,3.1069987E0,4.3632402E0,3.8440528E0,1.5454819E0,3.2039174E-1,2.3661825E-1,-1.4919262E0,1.5546188E0,3.6725516E0,5.8108616E0,8.460503E0,-5.8477085E-2,-1.5524606E0,1.221095E0,-3.406024E0,-1.1570735E1,-6.600019E0,-3.7182848E0,-6.5411577E0,4.0529704E-1,-1.4058754E0,4.5544755E-1,1.1492739E-1,-2.2449107E0,-3.32093E0,-4.1568574E-1,-1.7032759E0],"split_indices":[1,3,13,0,8,75,69,69,0,12,69,70,84,13,75,38,41,10,21,14,2,22,10,70,84,77,0,78,77,77,73,6,73,38,9,13,9,0,0,69,69,31,69,6,12,9,22,7,73,70,16,75,8,1,61,42,38,1,33,73,82,75,75,0,0,0,0,0,0,0,0,0,0,0,0,0,0,0,0,0,0,0,0,0,0,0,0,0,0,0,0,0,0,0,0,0,0,0,0,0,0,0,0,0,0,0,0,0,0,0,0,0,0,0,0,0,0,0,0,0,0,0,0],"split_type":[0,0,0,0,0,0,0,0,0,0,0,0,0,0,0,0,0,0,0,0,0,0,0,0,0,0,0,0,0,0,0,0,0,0,0,0,0,0,0,0,0,0,0,0,0,0,0,0,0,0,0,0,0,0,0,0,0,0,0,0,0,0,0,0,0,0,0,0,0,0,0,0,0,0,0,0,0,0,0,0,0,0,0,0,0,0,0,0,0,0,0,0,0,0,0,0,0,0,0,0,0,0,0,0,0,0,0,0,0,0,0,0,0,0,0,0,0,0,0,0,0,0,0],"sum_hessian":[4.36416E5,3.54499E5,8.1917E4,7.2511E4,2.81988E5,6.2359E4,1.9558E4,7.1196E4,1.315E3,2.04714E5,7.7274E4,3.7289E4,2.507E4,1.3112E4,6.446E3,2.281E3,6.8915E4,1.267E3,4.8E1,1.60745E5,4.3969E4,1.3875E4,6.3399E4,2.9418E4,7.871E3,1.4386E4,1.0684E4,1.2844E4,2.68E2,3.786E3,2.66E3,1.92E3,3.61E2,6.3984E4,4.931E3,2E2,1.067E3,4.6E1,2E0,1.28963E5,3.1782E4,2.62E3,4.1349E4,7.985E3,5.89E3,3.3435E4,2.9964E4,3.42E2,2.9076E4,3.319E3,4.552E3,8.46E3,5.926E3,1.0508E4,1.76E2,2.028E3,1.0816E4,5.6E1,2.12E2,3.032E3,7.54E2,6.87E2,1.973E3,1.653E3,2.67E2,5.1E1,3.1E2,6.301E4,9.74E2,1.208E3,3.723E3,1.97E2,3E0,5.58E2,5.09E2,8.754E3,1.20209E5,6.15E2,3.1167E4,1.844E3,7.76E2,8.38E2,4.0511E4,6.998E3,9.87E2,5.526E3,3.64E2,1.0645E4,2.279E4,2.2957E4,7.007E3,1.28E2,2.14E2,1.2447E4,1.6629E4,2.258E3,1.061E3,6.79E2,3.873E3,7.175E3,1.285E3,5.267E3,6.59E2,9.546E3,9.62E2,9.1E1,8.5E1,6.26E2,1.402E3,1.046E4,3.56E2,5E0,5.1E1,1.75E2,3.7E1,3.62E2,2.67E3,5.56E2,1.98E2,2.64E2,4.23E2,4.66E2,1.507E3],"tree_param":{"num_deleted":"0","num_feature":"87","num_nodes":"123","size_leaf_vector":"1"}},{"base_weights":[-1.6667844E-4,-8.142339E-1,3.5227077E0,1.1734571E0,-2.2768266E0,4.6307836E0,-1.0352847E-2,-6.0689664E-1,2.8992007E0,-5.931083E0,-1.6566187E0,5.408012E0,1.9314739E0,-8.3078694E-1,6.8659525E0,-8.0668956E-1,1.5084803E1,5.563784E0,2.5863113E0,-6.251057E0,8.978024E0,-7.6322466E-1,-4.079719E0,5.470769E0,-1.6428776E1,9.111803E-1,3.782606E0,-1.0141411E0,1.8893486E1,6.8866806E0,1.1265283E0,-1.3702152E0,2.6521363E0,1.3161349E1,4.7641706E0,5.616642E0,-4.3701277E0,2.7461824E0,-2.909179E0,-8.076263E0,-3.9608374E0,1.5494808E1,6.315863E0,-1.5427824E0,7.017736E-1,-3.7784345E0,-1.4240947E1,4.9084997E0,7.533144E0,-1.5043167E1,-8.064079E0,1.1284392E0,-7.754677E0,6.0317707E0,1.3943354E0,-1.5026659E0,6.6557813E0,1.6091911E1,2.322243E1,7.0598793E0,1.9413548E0,-3.5709995E-1,-3.0596519E0,2.2647119E0,1.8514518E-1,4.0124335E0,8.963873E-1,1.6938925E0,-3.4974127E0,-2.1279213E0,3.194063E0,8.470079E-1,-2.5022507E0,-4.052155E0,-8.407196E-1,-4.2682567E0,-2.0898404E0,-5.750119E-1,-2.3703678E0,4.847232E0,-5.310091E0,2.0977964E0,3.2382727E-1,-4.3714318E-1,-4.457148E0,2.0433016E-1,2.4186194E0,-8.0115515E-1,-2.2109208E0,-5.7304134E0,2.659577E0,1.4459264E0,5.140619E0,2.678554E0,2.0041757E0,-4.6086593E0,9.154404E-1,1.16805E-1,8.9622325E-1,-3.3034062E0,-1.1637585E0,1.901008E0,2.558445E-1,8.4631896E-1,-1.7227879E-1,-3.689362E-1,-3.5037324E0,2.3609066E0,-5.0902214E0,4.97027E0,1.2461243E-1,7.0843124E0,2.3320024E0,2.139616E0,1.6315053E0],"categories":[],"categories_nodes":[],"categories_segments":[],"categories_sizes":[],"default_left":[0,0,0,0,0,0,0,0,0,0,0,0,0,0,0,0,0,0,0,0,0,0,0,0,0,0,0,0,0,0,0,0,0,0,0,0,0,0,0,0,0,0,0,0,0,0,0,0,0,0,0,0,0,0,0,0,0,0,0,0,0,0,0,0,0,0,0,0,0,0,0,0,0,0,0,0,0,0,0,0,0,0,0,0,0,0,0,0,0,0,0,0,0,0,0,0,0,0,0,0,0,0,0,0,0,0,0,0,0,0,0,0,0,0,0],"id":3,"left_children":[1,3,5,7,9,11,13,15,17,19,21,23,25,27,29,31,33,35,37,39,41,43,45,47,49,51,53,55,57,59,-1,61,63,65,-1,67,69,71,73,75,77,79,81,83,85,87,89,91,93,95,-1,97,99,101,103,105,107,109,111,113,-1,-1,-1,-1,-1,-1,-1,-1,-1,-1,-1,-1,-1,-1,-1,-1,-1,-1,-1,-1,-1,-1,-1,-1,-1,-1,-1,-1,-1,-1,-1,-1,-1,-1,-1,-1,-1,-1,-1,-1,-1,-1,-1,-1,-1,-1,-1,-1,-1,-1,-1,-1,-1,-1,-1],"loss_changes":[1.2515842E6,1.03059894E6,3.2070088E5,4.6171175E5,4.6284775E5,1.308195E5,1.1034888E5,2.319085E5,6.3605125E4,1.4141638E5,3.7795728E5,6.644225E4,2.6330676E4,6.321797E4,1.0859375E2,1.4236667E5,1.2144688E3,4.234672E3,6.000647E4,1.2123325E5,1.0710395E4,1.4568566E5,1.43931E5,5.5949125E4,1.6085859E3,1.6934531E4,2.6602562E4,6.488839E4,1.5788945E3,1.0328125E2,0E0,9.973239E4,1.01968484E5,5.6365234E2,0E0,4.1532656E3,1.8338086E3,5.6806188E4,2.1473848E3,1.101365E5,1.0363236E5,4.245289E3,1.5659785E3,9.491341E4,6.735951E3,1.8173088E5,1.5223184E5,4.108525E4,1.22423125E4,7.684707E2,0E0,1.2049719E4,2.7339473E3,4.0230781E3,6.7536226E3,4.5191332E4,2.9870918E4,7.462383E2,1.8580469E2,1.3090625E2,0E0,0E0,0E0,0E0,0E0,0E0,0E0,0E0,0E0,0E0,0E0,0E0,0E0,0E0,0E0,0E0,0E0,0E0,0E0,0E0,0E0,0E0,0E0,0E0,0E0,0E0,0E0,0E0,0E0,0E0,0E0,0E0,0E0,0E0,0E0,0E0,0E0,0E0,0E0,0E0,0E0,0E0,0E0,0E0,0E0,0E0,0E0,0E0,0E0,0E0,0E0,0E0,0E0,0E0,0E0],"parents":[2147483647,0,0,1,1,2,2,3,3,4,4,5,5,6,6,7,7,8,8,9,9,10,10,11,11,12,12,13,13,14,14,15,15,16,16,17,17,18,18,19,19,20,20,21,21,22,22,23,23,24,24,25,25,26,26,27,27,28,28,29,29,31,31,32,32,33,33,35,35,36,36,37,37,38,38,39,39,40,40,41,41,42,42,43,43,44,44,45,45,46,46,47,47,48,48,49,49,51,51,52,52,53,53,54,54,55,55,56,56,57,57,58,58,59,59],"right_children":[2,4,6,8,10,12,14,16,18,20,22,24,26,28,30,32,34,36,38,40,42,44,46,48,50,52,54,56,58,60,-1,62,64,66,-1,68,70,72,74,76,78,80,82,84,86,88,90,92,94,96,-1,98,100,102,104,106,108,110,112,114,-1,-1,-1,-1,-1,-1,-1,-1,-1,-1,-1,-1,-1,-1,-1,-1,-1,-1,-1,-1,-1,-1,-1,-1,-1,-1,-1,-1,-1,-1,-1,-1,-1,-1,-1,-1,-1,-1,-1,-1,-1,-1,-1,-1,-1,-1,-1,-1,-1,-1,-1,-1,-1,-1,-1],"split_conditions":[1E0,1E0,1E0,1E0,1E0,9E0,1E0,1E0,5E0,1E0,1E1,1E0,1E0,1E0,1E0,1E0,1E0,4E0,1E0,1E0,3E0,1.8E1,1E0,1E0,1E0,1E0,1E0,1E0,1E0,2E0,1.1265283E0,1E0,5E0,1E0,4.7641706E0,1E0,1E0,1E0,1E0,5E0,1E0,1E0,2E0,1E0,1.6E1,1E0,2E0,1E0,2E0,2E0,-8.064079E0,1E0,1E0,2E0,1E0,1E0,1E0,1E0,1E0,1E0,1.9413548E0,-3.5709995E-1,-3.0596519E0,2.2647119E0,1.8514518E-1,4.0124335E0,8.963873E-1,1.6938925E0,-3.4974127E0,-2.1279213E0,3.194063E0,8.470079E-1,-2.5022507E0,-4.052155E0,-8.407196E-1,-4.2682567E0,-2.0898404E0,-5.750119E-1,-2.3703678E0,4.847232E0,-5.310091E0,2.0977964E0,3.2382727E-1,-4.3714318E-1,-4.457148E0,2.0433016E-1,2.4186194E0,-8.0115515E-1,-2.2109208E0,-5.7304134E0,2.659577E0,1.4459264E0,5.140619E0,2.678554E0,2.0041757E0,-4.6086593E0,9.154404E-1,1.16805E-1,8.9622325E-1,-3.3034062E0,-1.1637585E0,1.901008E0,2.558445E-1,8.4631896E-1,-1.7227879E-1,-3.689362E-1,-3.5037324E0,2.3609066E0,-5.0902214E0,4.97027E0,1.2461243E-1,7.0843124E0,2.3320024E0,2.139616E0,1.6315053E0],"split_indices":[1,75,13,9,9,69,41,0,73,0,75,38,61,0,7,22,17,42,14,44,73,73,37,44,6,7,66,61,14,42,0,38,73,21,0,5,2,11,2,73,18,13,42,38,70,8,84,0,75,31,0,44,19,48,34,37,4,21,21,22,0,0,0,0,0,0,0,0,0,0,0,0,0,0,0,0,0,0,0,0,0,0,0,0,0,0,0,0,0,0,0,0,0,0,0,0,0,0,0,0,0,0,0,0,0,0,0,0,0,0,0,0,0,0,0],"split_type":[0,0,0,0,0,0,0,0,0,0,0,0,0,0,0,0,0,0,0,0,0,0,0,0,0,0,0,0,0,0,0,0,0,0,0,0,0,0,0,0,0,0,0,0,0,0,0,0,0,0,0,0,0,0,0,0,0,0,0,0,0,0,0,0,0,0,0,0,0,0,0,0,0,0,0,0,0,0,0,0,0,0,0,0,0,0,0,0,0,0,0,0,0,0,0,0,0,0,0,0,0,0,0,0,0,0,0,0,0,0,0,0,0,0,0],"sum_hessian":[4.36416E5,3.54499E5,8.1917E4,1.50274E5,2.04225E5,6.2359E4,1.9558E4,7.3967E4,7.6307E4,2.9631E4,1.74594E5,4.8417E4,1.3942E4,1.7474E4,2.084E3,7.3038E4,9.29E2,8.017E3,6.829E4,2.9009E4,6.22E2,1.27563E5,4.7031E4,4.8279E4,1.38E2,8.989E3,4.953E3,1.7314E4,1.6E2,2.069E3,1.5E1,6.2806E4,1.0232E4,2.77E2,6.52E2,7.975E3,4.2E1,6.636E4,1.93E3,1.6142E4,1.2867E4,1.79E2,4.43E2,8.3259E4,4.4304E4,4.5678E4,1.353E3,3.7939E4,1.034E4,1.24E2,1.4E1,8.77E3,2.19E2,2.55E3,2.403E3,1.6278E4,1.036E3,1E2,6E1,1.449E3,6.2E2,6.1553E4,1.253E3,3.003E3,7.229E3,2.71E2,6E0,7.962E3,1.3E1,3.6E1,6E0,6.5902E4,4.58E2,1.8E1,1.912E3,2.466E3,1.3676E4,8.473E3,4.394E3,1.76E2,3E0,3.92E2,5.1E1,8.2728E4,5.31E2,4.4181E4,1.23E2,3.491E4,1.0768E4,1.118E3,2.35E2,3.7667E4,2.72E2,3.918E3,6.422E3,1.22E2,2E0,6.276E3,2.494E3,1.18E2,1.01E2,2.408E3,1.42E2,1.393E3,1.01E3,1.5854E4,4.24E2,9.86E2,5E1,9.7E1,3E0,5.8E1,2E0,1.384E3,6.5E1],"tree_param":{"num_deleted":"0","num_feature":"87","num_nodes":"115","size_leaf_vector":"1"}},{"base_weights":[-1.1778063E-4,-5.7000387E-1,2.4660633E0,8.2143027E-1,-1.5938559E0,3.5682647E0,6.812682E-1,-4.2470828E-1,2.029345E0,-9.1472036E-1,-3.292139E0,3.6238248E0,-1.24753275E1,-8.687823E-1,2.220509E0,-5.646942E-1,1.0569764E1,1.9465595E0,8.089792E0,-4.788E-1,-4.889305E0,-5.141323E0,-4.941255E-1,2.9167216E0,4.854799E0,-1.1832153E1,-8.585817E0,-6.5585715E-1,-8.536071E0,2.4416096E0,-1.0710568E1,-9.5920354E-1,1.8567374E0,9.262951E0,3.344232E0,2.092013E0,-2.8861485E0,-4.3634744E0,8.976443E0,-3.6923325E-1,-9.734882E0,-4.0641694E0,-1.0983054E1,-8.094008E0,-3.5802712E0,4.8072597E-1,-6.4487467E0,2.8111315E0,1.2102885E1,1.2809249E0,5.6764417E0,-1.2722452E1,-5.8860655E0,-1.2096055E0,2.3399506E0,-7.192642E0,-1.1885002E1,1.7563138E0,4.6712184E0,-6.59981E0,-1.30202875E1,-2.3318045E-1,-2.0316129E0,1.585525E0,1.2961012E-1,2.5896597E0,3.8390641E0,1.1694953E0,5.6091017E-1,-6.2570596E-1,-1.780365E0,-1.718081E0,-4.1626602E-1,2.8377519E0,2.5866659E0,-9.436885E-2,-5.0966077E0,-2.6266665E0,-9.044312E0,-1.1562392E0,-5.233567E0,-4.1321664E0,-1.6175932E0,-2.6024528E0,1.6023443E0,-1.2765323E0,-5.1443046E-1,-6.014365E-1,5.436951E-1,-1.2502432E0,-2.8223317E0,8.9450896E-1,-1.7101612E0,3.9553003E0,2.3905635E0,2.5395453E0,2.1691497E-1,2.1473005E0,1.3938658E0,-4.331583E0,-2.279938E0,-1.3368285E0,-4.3231487E0,4.405718E-2,-7.378756E-1,1.3800634E0,2.476847E-1,-2.3017337E0,2.4914627E-1,-2.4462976E0,-3.7803676E0,9.1880405E-1,-1.2373817E-2,8.7847364E-1,2.4808836E0,-3.1053822E0,-1.4782376E0,-4.405622E0,-2.7390633E0],"categories":[],"categories_nodes":[],"categories_segments":[],"categories_sizes":[],"default_left":[0,0,0,0,0,0,0,0,0,0,0,0,0,0,0,0,0,0,0,0,0,0,0,0,0,0,0,0,0,0,0,0,0,0,0,0,0,0,0,0,0,0,0,0,0,0,0,0,0,0,0,0,0,0,0,0,0,0,0,0,0,0,0,0,0,0,0,0,0,0,0,0,0,0,0,0,0,0,0,0,0,0,0,0,0,0,0,0,0,0,0,0,0,0,0,0,0,0,0,0,0,0,0,0,0,0,0,0,0,0,0,0,0,0,0,0,0,0,0],"id":4,"left_children":[1,3,5,7,9,11,13,15,17,19,21,23,25,27,29,31,33,35,37,39,41,43,45,47,49,51,-1,53,55,57,59,61,63,65,-1,67,69,71,73,75,77,79,81,83,85,87,89,91,93,95,97,99,101,103,105,107,109,111,113,115,117,-1,-1,-1,-1,-1,-1,-1,-1,-1,-1,-1,-1,-1,-1,-1,-1,-1,-1,-1,-1,-1,-1,-1,-1,-1,-1,-1,-1,-1,-1,-1,-1,-1,-1,-1,-1,-1,-1,-1,-1,-1,-1,-1,-1,-1,-1,-1,-1,-1,-1,-1,-1,-1,-1,-1,-1,-1,-1],"loss_changes":[6.133604E5,5.0503006E5,1.6114694E5,2.2619916E5,2.3554403E5,4.51875E4,7.462337E4,1.1384803E5,3.826925E4,2.5276356E5,3.0184588E5,4.3915375E4,1.4784766E3,2.5436193E4,4.489354E4,6.977427E4,5.988125E2,5.292353E4,1.1390047E4,1.3332786E5,7.24565E4,1.618725E5,1.3476319E5,3.106125E4,5.4058594E4,8.2506055E2,0E0,2.515875E4,1.8086152E3,2.356793E4,2.4206719E3,6.6417E4,4.997954E4,5.381836E2,0E0,2.9339812E4,5.3559062E3,2.720249E2,8.260156E1,1.1805088E5,3.0481969E4,3.5629516E4,2.674861E4,9.48365E4,2.8921156E4,6.603192E4,2.2007375E4,4.6031516E4,1.5224102E3,1.3793081E4,2.2810844E4,1.1825898E3,2.2833795E2,2.1701717E4,8.0945264E3,1.1727764E3,2.1521289E2,2.7719121E4,2.2723977E4,5.575498E2,9.541289E2,0E0,0E0,0E0,0E0,0E0,0E0,0E0,0E0,0E0,0E0,0E0,0E0,0E0,0E0,0E0,0E0,0E0,0E0,0E0,0E0,0E0,0E0,0E0,0E0,0E0,0E0,0E0,0E0,0E0,0E0,0E0,0E0,0E0,0E0,0E0,0E0,0E0,0E0,0E0,0E0,0E0,0E0,0E0,0E0,0E0,0E0,0E0,0E0,0E0,0E0,0E0,0E0,0E0,0E0,0E0,0E0,0E0,0E0],"parents":[2147483647,0,0,1,1,2,2,3,3,4,4,5,5,6,6,7,7,8,8,9,9,10,10,11,11,12,12,13,13,14,14,15,15,16,16,17,17,18,18,19,19,20,20,21,21,22,22,23,23,24,24,25,25,27,27,28,28,29,29,30,30,31,31,32,32,33,33,35,35,36,36,37,37,38,38,39,39,40,40,41,41,42,42,43,43,44,44,45,45,46,46,47,47,48,48,49,49,50,50,51,51,52,52,53,53,54,54,55,55,56,56,57,57,58,58,59,59,60,60],"right_children":[2,4,6,8,10,12,14,16,18,20,22,24,26,28,30,32,34,36,38,40,42,44,46,48,50,52,-1,54,56,58,60,62,64,66,-1,68,70,72,74,76,78,80,82,84,86,88,90,92,94,96,98,100,102,104,106,108,110,112,114,116,118,-1,-1,-1,-1,-1,-1,-1,-1,-1,-1,-1,-1,-1,-1,-1,-1,-1,-1,-1,-1,-1,-1,-1,-1,-1,-1,-1,-1,-1,-1,-1,-1,-1,-1,-1,-1,-1,-1,-1,-1,-1,-1,-1,-1,-1,-1,-1,-1,-1,-1,-1,-1,-1,-1,-1,-1,-1,-1],"split_conditions":[1E0,1E0,5E0,1E0,1E0,1E0,1E0,1E0,2E0,1E0,1E0,1E0,2E0,1E0,2E0,1E0,6E0,9E0,1E0,1E0,1E0,1E0,1.2E1,1E0,6E0,2E0,-8.585817E0,1E0,1.3E1,2E0,1E0,1E0,5E0,1E0,3.344232E0,5E0,1E0,1E0,2E0,1E0,1E0,1E0,1E0,1E0,1E0,1E0,2.6E1,1E0,1E1,3E0,2E0,1E0,2E0,1E0,7E0,1E0,6E0,1E0,1E0,1E0,1E0,-2.3318045E-1,-2.0316129E0,1.585525E0,1.2961012E-1,2.5896597E0,3.8390641E0,1.1694953E0,5.6091017E-1,-6.2570596E-1,-1.780365E0,-1.718081E0,-4.1626602E-1,2.8377519E0,2.5866659E0,-9.436885E-2,-5.0966077E0,-2.6266665E0,-9.044312E0,-1.1562392E0,-5.233567E0,-4.1321664E0,-1.6175932E0,-2.6024528E0,1.6023443E0,-1.2765323E0,-5.1443046E-1,-6.014365E-1,5.436951E-1,-1.2502432E0,-2.8223317E0,8.9450896E-1,-1.7101612E0,3.9553003E0,2.3905635E0,2.5395453E0,2.1691497E-1,2.1473005E0,1.3938658E0,-4.331583E0,-2.279938E0,-1.3368285E0,-4.3231487E0,4.405718E-2,-7.378756E-1,1.3800634E0,2.476847E-1,-2.3017337E0,2.4914627E-1,-2.4462976E0,-3.7803676E0,9.1880405E-1,-1.2373817E-2,8.7847364E-1,2.4808836E0,-3.1053822E0,-1.4782376E0,-4.405622E0,-2.7390633E0],"split_indices":[1,75,69,9,8,38,84,0,9,5,22,61,13,37,13,22,71,70,2,11,37,3,69,0,70,25,0,39,75,1,33,6,73,31,0,73,11,53,17,38,4,4,3,11,63,9,75,7,75,76,75,35,8,13,75,8,77,77,14,18,50,0,0,0,0,0,0,0,0,0,0,0,0,0,0,0,0,0,0,0,0,0,0,0,0,0,0,0,0,0,0,0,0,0,0,0,0,0,0,0,0,0,0,0,0,0,0,0,0,0,0,0,0,0,0,0,0,0,0],"split_type":[0,0,0,0,0,0,0,0,0,0,0,0,0,0,0,0,0,0,0,0,0,0,0,0,0,0,0,0,0,0,0,0,0,0,0,0,0,0,0,0,0,0,0,0,0,0,0,0,0,0,0,0,0,0,0,0,0,0,0,0,0,0,0,0,0,0,0,0,0,0,0,0,0,0,0,0,0,0,0,0,0,0,0,0,0,0,0,0,0,0,0,0,0,0,0,0,0,0,0,0,0,0,0,0,0,0,0,0,0,0,0,0,0,0,0,0,0,0,0],"sum_hessian":[4.36416E5,3.54499E5,8.1917E4,1.50274E5,2.04225E5,5.0642E4,3.1275E4,7.3967E4,7.6307E4,1.45887E5,5.8338E4,5.0468E4,1.74E2,1.5583E4,1.5692E4,7.3038E4,9.29E2,7.528E4,1.027E3,1.31469E5,1.4418E4,3.5124E4,2.3214E4,3.2057E4,1.8411E4,1.69E2,5E0,1.5163E4,4.2E2,1.5429E4,2.63E2,6.2806E4,1.0232E4,2.9E2,6.39E2,7.3081E4,2.199E3,6.8E1,9.59E2,1.29932E5,1.537E3,1.27E4,1.718E3,1.2146E4,2.2978E4,1.9949E4,3.265E3,3.1694E4,3.63E2,3.442E3,1.4969E4,1.46E2,2.3E1,1.2798E4,2.365E3,3.02E2,1.18E2,1.1803E4,3.626E3,9.6E1,1.67E2,6.0901E4,1.905E3,3.003E3,7.229E3,2.49E2,4.1E1,8.007E3,6.5074E4,1.743E3,4.56E2,4.6E1,2.2E1,3.95E2,5.64E2,1.29507E5,4.25E2,1.468E3,6.9E1,1.2505E4,1.95E2,1.145E3,5.73E2,1.1643E4,5.03E2,1.6873E4,6.105E3,6.959E3,1.299E4,1.845E3,1.42E3,3.1072E4,6.22E2,2.86E2,7.7E1,2.47E2,3.195E3,6.138E3,8.831E3,1.08E2,3.8E1,2.1E1,2E0,6.138E3,6.66E3,9.48E2,1.417E3,2.85E2,1.7E1,2.1E1,9.7E1,6.835E3,4.968E3,2.444E3,1.182E3,2.8E1,6.8E1,1.15E2,5.2E1],"tree_param":{"num_deleted":"0","num_feature":"87","num_nodes":"119","size_leaf_vector":"1"}},{"base_weights":[-1.9304271E-4,-2.2238797E-1,3.1694713E0,9.487034E-2,-1.9369962E0,4.7049527E0,2.101158E0,1.6022995E-1,-8.073202E0,-1.7211152E0,-1.0076963E1,4.42541E0,8.282106E0,2.5954282E0,-1.0981851E0,1.0402098E-1,8.305202E0,-6.808293E0,-1.3818303E1,-1.084787E0,-3.7483182E0,-1.0551812E1,4.4958534E0,4.8551865E0,1.6334009E0,1.03019285E1,2.134463E-1,6.1938757E-1,3.3765724E0,-4.854346E-1,-1.1817339E1,2.0039977E-1,-6.3474693E0,7.4261303E0,1.1687256E1,-6.3226895E0,-1.861717E1,-1.5316074E1,-6.6698728E0,-6.3017637E-1,-3.6601408E0,-5.455996E0,-2.3386016E0,-1.2266415E1,-7.4956613E0,4.4954433E0,8.571882E0,2.1064708E0,-1.9439682E1,1.1539555E1,-8.066467E-1,-1.2115916E0,1.4094225E1,7.406156E-1,-7.23563E0,3.17423E0,7.4464393E0,-9.4537693E-1,1.2525612E1,-1.1005716E1,-7.7023296E0,3.9740434E-1,-2.5307864E-2,-1.220639E0,-2.51894E0,2.1386476E0,5.480644E0,3.422269E0,5.7308574E0,-1.6540878E0,-2.6374137E0,-8.583597E0,-3.5382855E0,-6.9015503E0,-4.0769005E0,-1.6056513E0,-4.8842883E0,-1.2811409E-1,-2.0253446E0,-1.6427026E0,1.0102297E0,-3.1296794E0,-1.4810926E0,-6.420261E-2,-1.1757671E0,-4.1939306E0,-1.6576157E0,-5.572671E0,-2.102227E0,1.213068E0,1.6833872E0,1.498218E0,3.0686815E0,8.161878E-1,-3.1658552E0,-3.7484117E0,-7.2441545E0,4.355913E0,2.7364473E0,9.244293E-1,-1.6195594E0,-1.5559019E0,3.3878613E-1,5.2089825E0,-1.6121292E-2,1.3153146E-1,1.0788692E0,-4.029386E0,-1.9409844E0,7.1340346E-1,1.2658259E0,-3.1156886E0,2.3170528E0,-1.7984863E-1,-3.7463484E0,1.9055396E0,4.0908017E0,-1.7963023E0,-3.4888942E0],"categories":[],"categories_nodes":[],"categories_segments":[],"categories_sizes":[],"default_left":[0,0,0,0,0,0,0,0,0,0,0,0,0,0,0,0,0,0,0,0,0,0,0,0,0,0,0,0,0,0,0,0,0,0,0,0,0,0,0,0,0,0,0,0,0,0,0,0,0,0,0,0,0,0,0,0,0,0,0,0,0,0,0,0,0,0,0,0,0,0,0,0,0,0,0,0,0,0,0,0,0,0,0,0,0,0,0,0,0,0,0,0,0,0,0,0,0,0,0,0,0,0,0,0,0,0,0,0,0,0,0,0,0,0,0,0,0,0,0],"id":5,"left_children":[1,3,5,7,9,11,13,15,17,19,21,23,25,27,29,31,33,35,37,39,41,43,-1,45,47,49,51,53,55,57,59,61,63,65,67,69,71,73,75,77,79,81,83,85,87,89,91,93,95,97,99,101,103,105,107,109,111,113,115,117,-1,-1,-1,-1,-1,-1,-1,-1,-1,-1,-1,-1,-1,-1,-1,-1,-1,-1,-1,-1,-1,-1,-1,-1,-1,-1,-1,-1,-1,-1,-1,-1,-1,-1,-1,-1,-1,-1,-1,-1,-1,-1,-1,-1,-1,-1,-1,-1,-1,-1,-1,-1,-1,-1,-1,-1,-1,-1,-1],"loss_changes":[3.073619E5,2.2184844E5,4.6886812E4,1.8373048E5,1.1188353E5,1.1691969E4,2.6665836E4,1.563082E5,1.9759453E4,8.001897E4,1.973561E4,1.3048625E4,1.3834172E4,2.254179E4,1.4818615E4,2.1083736E5,6.8701875E3,1.2733148E4,5.165539E3,5.5277395E4,3.5664062E4,8.370781E3,0E0,1.2568547E4,1.4525962E4,9.344375E3,3.3995654E3,3.946715E3,8.596008E3,1.2794371E4,1.0895371E3,1.069592E5,2.3268766E4,5.8656406E3,7.7971875E2,4.2537656E3,5.6635684E3,5.0768125E3,1.014677E3,4.9896473E4,9.040177E4,1.725575E4,2.726757E4,1.18536875E4,3.0236504E3,4.313203E3,4.875621E3,1.1084458E4,7.444785E2,4.2705547E3,1.2485338E3,1.4573438E3,7.4093896E2,3.5164766E3,2.1196631E2,8.289484E3,2.525873E3,8.232662E3,4.1382812E2,2.9668164E2,0E0,0E0,0E0,0E0,0E0,0E0,0E0,0E0,0E0,0E0,0E0,0E0,0E0,0E0,0E0,0E0,0E0,0E0,0E0,0E0,0E0,0E0,0E0,0E0,0E0,0E0,0E0,0E0,0E0,0E0,0E0,0E0,0E0,0E0,0E0,0E0,0E0,0E0,0E0,0E0,0E0,0E0,0E0,0E0,0E0,0E0,0E0,0E0,0E0,0E0,0E0,0E0,0E0,0E0,0E0,0E0,0E0,0E0,0E0],"parents":[2147483647,0,0,1,1,2,2,3,3,4,4,5,5,6,6,7,7,8,8,9,9,10,10,11,11,12,12,13,13,14,14,15,15,16,16,17,17,18,18,19,19,20,20,21,21,23,23,24,24,25,25,26,26,27,27,28,28,29,29,30,30,31,31,32,32,33,33,34,34,35,35,36,36,37,37,38,38,39,39,40,40,41,41,42,42,43,43,44,44,45,45,46,46,47,47,48,48,49,49,50,50,51,51,52,52,53,53,54,54,55,55,56,56,57,57,58,58,59,59],"right_children":[2,4,6,8,10,12,14,16,18,20,22,24,26,28,30,32,34,36,38,40,42,44,-1,46,48,50,52,54,56,58,60,62,64,66,68,70,72,74,76,78,80,82,84,86,88,90,92,94,96,98,100,102,104,106,108,110,112,114,116,118,-1,-1,-1,-1,-1,-1,-1,-1,-1,-1,-1,-1,-1,-1,-1,-1,-1,-1,-1,-1,-1,-1,-1,-1,-1,-1,-1,-1,-1,-1,-1,-1,-1,-1,-1,-1,-1,-1,-1,-1,-1,-1,-1,-1,-1,-1,-1,-1,-1,-1,-1,-1,-1,-1,-1,-1,-1,-1,-1],"split_conditions":[1E0,1E1,1E0,1E0,1E0,1E0,1E0,1E0,1E0,2.8E1,2E0,1E0,1E0,6E0,1E0,1E0,1E1,1E0,1E0,2E0,3E0,1E0,4.4958534E0,3E0,1E0,1E0,1E0,1E0,1E0,1E0,1E0,6E0,1E0,2E0,2E0,2E0,1E0,1E0,3E0,1E0,1E0,2E0,1.8E1,1E0,4E0,1E0,3E0,3E0,1E0,4E0,1.1E1,1E0,2E0,1E0,2E0,1E0,1E0,1E0,2E0,1E0,-7.7023296E0,3.9740434E-1,-2.5307864E-2,-1.220639E0,-2.51894E0,2.1386476E0,5.480644E0,3.422269E0,5.7308574E0,-1.6540878E0,-2.6374137E0,-8.583597E0,-3.5382855E0,-6.9015503E0,-4.0769005E0,-1.6056513E0,-4.8842883E0,-1.2811409E-1,-2.0253446E0,-1.6427026E0,1.0102297E0,-3.1296794E0,-1.4810926E0,-6.420261E-2,-1.1757671E0,-4.1939306E0,-1.6576157E0,-5.572671E0,-2.102227E0,1.213068E0,1.6833872E0,1.498218E0,3.0686815E0,8.161878E-1,-3.1658552E0,-3.7484117E0,-7.2441545E0,4.355913E0,2.7364473E0,9.244293E-1,-1.6195594E0,-1.5559019E0,3.3878613E-1,5.2089825E0,-1.6121292E-2,1.3153146E-1,1.0788692E0,-4.029386E0,-1.9409844E0,7.1340346E-1,1.2658259E0,-3.1156886E0,2.3170528E0,-1.7984863E-1,-3.7463484E0,1.9055396E0,4.0908017E0,-1.7963023E0,-3.4888942E0],"split_indices":[61,75,66,38,37,37,77,0,8,75,2,5,30,70,37,7,73,4,1,34,9,11,0,84,6,21,31,13,6,0,4,69,15,0,9,10,42,14,84,7,22,9,77,1,72,20,77,84,82,78,78,17,30,5,1,43,1,38,8,8,0,0,0,0,0,0,0,0,0,0,0,0,0,0,0,0,0,0,0,0,0,0,0,0,0,0,0,0,0,0,0,0,0,0,0,0,0,0,0,0,0,0,0,0,0,0,0,0,0,0,0,0,0,0,0,0,0,0,0],"split_type":[0,0,0,0,0,0,0,0,0,0,0,0,0,0,0,0,0,0,0,0,0,0,0,0,0,0,0,0,0,0,0,0,0,0,0,0,0,0,0,0,0,0,0,0,0,0,0,0,0,0,0,0,0,0,0,0,0,0,0,0,0,0,0,0,0,0,0,0,0,0,0,0,0,0,0,0,0,0,0,0,0,0,0,0,0,0,0,0,0,0,0,0,0,0,0,0,0,0,0,0,0,0,0,0,0,0,0,0,0,0,0,0,0,0,0,0,0,0,0],"sum_hessian":[4.36416E5,4.07828E5,2.8588E4,3.4415E5,6.3678E4,1.1728E4,1.686E4,3.41419E5,2.731E3,6.2034E4,1.644E3,1.088E4,8.48E2,1.4604E4,2.256E3,3.3908E5,2.339E3,2.24E3,4.91E2,4.7215E4,1.4819E4,1.614E3,3E1,9.428E3,1.452E3,6.78E2,1.7E2,4.138E3,1.0466E4,2.135E3,1.21E2,3.3409E5,4.99E3,1.859E3,4.8E2,2.153E3,8.7E1,4.05E2,8.6E1,4.0132E4,7.083E3,6.7E3,8.119E3,1.032E3,5.82E2,8.598E3,8.3E2,1.421E3,3.1E1,6.1E2,6.8E1,1.55E2,1.5E1,4.076E3,6.2E1,9.972E3,4.94E2,2.063E3,7.2E1,1.16E2,5E0,6.7517E4,2.66573E5,2.364E3,2.626E3,1.811E3,4.8E1,4.65E2,1.5E1,1.624E3,5.29E2,3.4E1,5.3E1,7.2E1,3.33E2,7.7E1,9E0,3.8844E4,1.288E3,5.629E3,1.454E3,6.31E2,6.069E3,3.464E3,4.655E3,8.22E2,2.1E2,2.3E1,5.59E2,6.123E3,2.475E3,2.64E2,5.66E2,1.356E3,6.5E1,1.4E1,1.7E1,2.71E2,3.39E2,3.7E1,3.1E1,5.7E1,9.8E1,1.2E1,3E0,3.687E3,3.89E2,5E0,5.7E1,5.662E3,4.31E3,7E0,4.87E2,2.004E3,5.9E1,1.2E1,6E1,1.4E1,1.02E2],"tree_param":{"num_deleted":"0","num_feature":"87","num_nodes":"119","size_leaf_vector":"1"}},{"base_weights":[-2.466836E-4,-3.1765243E-1,1.3733262E0,1.3416569E-1,-1.4989854E0,1.8882029E0,-2.683268E-1,6.369495E-1,-1.1862046E0,4.3326977E-1,-2.5422893E0,2.4778519E0,9.60564E-1,-7.248275E-1,3.5578692E0,7.1683353E-1,-4.7516747E0,-6.1456484E-1,-3.1203935E0,7.549042E-1,-5.1224174E0,-5.2915993E0,-1.935317E0,2.1385791E0,3.699549E0,-5.555662E-1,1.5752246E0,-1.6979401E0,9.8156834E-1,1.8376176E0,3.5059345E0,7.3893106E-1,-1.8072983E1,-3.3857996E0,-9.445102E0,-4.097258E-1,-6.149425E0,-9.112844E0,-2.748175E0,7.90588E-2,3.0375328E0,-3.6987464E0,-9.308077E0,-7.542934E0,-3.2595046E0,-2.5720654E0,-6.4991933E-1,-2.7291865E0,2.2167354E0,3.5607479E0,8.795484E0,-2.1244657E0,2.2748925E-1,1.3635907E0,5.6708665E0,-2.154671E0,4.100081E0,1.3492687E0,-7.4959702E0,3.5642445E0,2.4370277E0,2.0344655E-1,1.8976389E0,-7.415103E0,-5.019747E0,-5.1693565E-1,-1.5956069E0,-3.395358E0,-2.3574183E0,6.7800075E-2,-3.1207213E-1,-1.627338E0,-6.02361E0,-2.8484402E0,2.1926403E0,3.369246E-1,-8.925447E-1,1.0138485E-1,-1.2185001E0,1.0551716E0,-2.487027E0,-1.4951975E0,-9.05161E-2,-5.593005E0,-2.5852232E0,-2.0680707E0,-4.064644E0,1.01469524E-1,-1.5777159E0,-8.951915E-1,-1.9699366E-1,-2.682113E-1,1.1988462E0,-7.5764626E-1,-6.374878E0,7.787503E-1,4.0793797E-1,1.1506594E0,6.1082613E-1,1.8844196E0,3.6032722E0,-9.589385E-1,-1.9539002E-2,-3.2393387E-1,4.1390753E-1,3.7069055E-1,2.5551789E0,2.2740462E0,5.5776435E-1,-9.1067564E-1,-3.0363604E-1,1.6454953E0,9.9650234E-1,1.869394E-1,1.4574656E0,-1.3926218E0,-2.7297413E0,8.596196E-1,1.091305E0,6.190043E-1,8.557458E-1],"categories":[],"categories_nodes":[],"categories_segments":[],"categories_sizes":[],"default_left":[0,0,0,0,0,0,0,0,0,0,0,0,0,0,0,0,0,0,0,0,0,0,0,0,0,0,0,0,0,0,0,0,0,0,0,0,0,0,0,0,0,0,0,0,0,0,0,0,0,0,0,0,0,0,0,0,0,0,0,0,0,0,0,0,0,0,0,0,0,0,0,0,0,0,0,0,0,0,0,0,0,0,0,0,0,0,0,0,0,0,0,0,0,0,0,0,0,0,0,0,0,0,0,0,0,0,0,0,0,0,0,0,0,0,0,0,0,0,0,0,0],"id":6,"left_children":[1,3,5,7,9,11,13,15,17,19,21,23,25,27,29,31,33,35,37,39,41,43,45,47,49,51,53,55,57,-1,59,61,63,65,67,69,71,73,75,77,79,81,83,85,87,89,91,93,95,97,99,101,103,105,107,109,111,113,115,117,119,-1,-1,-1,-1,-1,-1,-1,-1,-1,-1,-1,-1,-1,-1,-1,-1,-1,-1,-1,-1,-1,-1,-1,-1,-1,-1,-1,-1,-1,-1,-1,-1,-1,-1,-1,-1,-1,-1,-1,-1,-1,-1,-1,-1,-1,-1,-1,-1,-1,-1,-1,-1,-1,-1,-1,-1,-1,-1,-1,-1],"loss_changes":[1.9026948E5,1.8921372E5,6.924161E4,1.7023258E5,1.9771134E5,3.4107375E4,3.4165527E4,7.994551E4,7.818699E4,6.1451797E4,1.0626772E5,1.5794453E4,2.2586533E4,2.901917E4,2.5654688E2,7.599602E4,1.7360082E4,6.1884652E4,3.5957406E4,5.0148445E4,1.118041E4,5.2664844E4,4.2698984E4,1.1358953E4,5.8288438E3,8.590401E3,1.4939828E4,2.947994E4,1.979494E4,0E0,1.1883789E2,6.2056117E4,1.5012734E3,6.74941E3,1.7270352E3,2.1099766E4,1.9562438E4,5.9842188E3,1.3350414E4,2.6889158E4,4.0381492E4,6.1371094E3,2.9148242E3,2.1212344E4,4.3560516E4,2.7523734E4,1.9606943E4,1.7269976E3,9.537766E3,3.371875E3,1.694918E3,5.139082E3,7.028092E3,1.5000344E4,6.1499824E3,1.0380879E4,8.58208E2,1.5498881E4,1.1656338E3,8.903906E1,1.1036377E1,0E0,0E0,0E0,0E0,0E0,0E0,0E0,0E0,0E0,0E0,0E0,0E0,0E0,0E0,0E0,0E0,0E0,0E0,0E0,0E0,0E0,0E0,0E0,0E0,0E0,0E0,0E0,0E0,0E0,0E0,0E0,0E0,0E0,0E0,0E0,0E0,0E0,0E0,0E0,0E0,0E0,0E0,0E0,0E0,0E0,0E0,0E0,0E0,0E0,0E0,0E0,0E0,0E0,0E0,0E0,0E0,0E0,0E0,0E0,0E0],"parents":[2147483647,0,0,1,1,2,2,3,3,4,4,5,5,6,6,7,7,8,8,9,9,10,10,11,11,12,12,13,13,14,14,15,15,16,16,17,17,18,18,19,19,20,20,21,21,22,22,23,23,24,24,25,25,26,26,27,27,28,28,30,30,31,31,32,32,33,33,34,34,35,35,36,36,37,37,38,38,39,39,40,40,41,41,42,42,43,43,44,44,45,45,46,46,47,47,48,48,49,49,50,50,51,51,52,52,53,53,54,54,55,55,56,56,57,57,58,58,59,59,60,60],"right_children":[2,4,6,8,10,12,14,16,18,20,22,24,26,28,30,32,34,36,38,40,42,44,46,48,50,52,54,56,58,-1,60,62,64,66,68,70,72,74,76,78,80,82,84,86,88,90,92,94,96,98,100,102,104,106,108,110,112,114,116,118,120,-1,-1,-1,-1,-1,-1,-1,-1,-1,-1,-1,-1,-1,-1,-1,-1,-1,-1,-1,-1,-1,-1,-1,-1,-1,-1,-1,-1,-1,-1,-1,-1,-1,-1,-1,-1,-1,-1,-1,-1,-1,-1,-1,-1,-1,-1,-1,-1,-1,-1,-1,-1,-1,-1,-1,-1,-1,-1,-1,-1],"split_conditions":[1E0,1E0,1E0,1E0,1E0,2E0,1E0,1E0,2E0,1E0,1E0,1E0,2E0,2E0,2E0,2E0,1E0,1E0,1E0,1E0,5E0,2E0,1E0,3E0,1E0,1E0,2E0,2E0,2E0,1.8376176E0,1.2E1,1E0,1E0,1E0,1E0,1E0,2E0,1E0,9E0,1E0,1E0,1E0,1E0,2E0,6E0,1E0,1E0,2E0,4E0,1E0,1E0,1E0,7E0,1E0,1.8E1,1E0,1E0,2E0,1E0,5E0,3E0,2.0344655E-1,1.8976389E0,-7.415103E0,-5.019747E0,-5.1693565E-1,-1.5956069E0,-3.395358E0,-2.3574183E0,6.7800075E-2,-3.1207213E-1,-1.627338E0,-6.02361E0,-2.8484402E0,2.1926403E0,3.369246E-1,-8.925447E-1,1.0138485E-1,-1.2185001E0,1.0551716E0,-2.487027E0,-1.4951975E0,-9.05161E-2,-5.593005E0,-2.5852232E0,-2.0680707E0,-4.064644E0,1.01469524E-1,-1.5777159E0,-8.951915E-1,-1.9699366E-1,-2.682113E-1,1.1988462E0,-7.5764626E-1,-6.374878E0,7.787503E-1,4.0793797E-1,1.1506594E0,6.1082613E-1,1.8844196E0,3.6032722E0,-9.589385E-1,-1.9539002E-2,-3.2393387E-1,4.1390753E-1,3.7069055E-1,2.5551789E0,2.2740462E0,5.5776435E-1,-9.1067564E-1,-3.0363604E-1,1.6454953E0,9.9650234E-1,1.869394E-1,1.4574656E0,-1.3926218E0,-2.7297413E0,8.596196E-1,1.091305E0,6.190043E-1,8.557458E-1],"split_indices":[1,8,13,34,16,79,41,12,72,12,3,44,33,35,70,6,78,11,2,5,75,85,65,70,41,84,1,39,13,0,80,0,10,17,9,75,34,0,69,14,38,57,34,8,71,22,61,35,75,79,22,44,70,0,75,34,17,1,33,74,27,0,0,0,0,0,0,0,0,0,0,0,0,0,0,0,0,0,0,0,0,0,0,0,0,0,0,0,0,0,0,0,0,0,0,0,0,0,0,0,0,0,0,0,0,0,0,0,0,0,0,0,0,0,0,0,0,0,0,0,0],"split_type":[0,0,0,0,0,0,0,0,0,0,0,0,0,0,0,0,0,0,0,0,0,0,0,0,0,0,0,0,0,0,0,0,0,0,0,0,0,0,0,0,0,0,0,0,0,0,0,0,0,0,0,0,0,0,0,0,0,0,0,0,0,0,0,0,0,0,0,0,0,0,0,0,0,0,0,0,0,0,0,0,0,0,0,0,0,0,0,0,0,0,0,0,0,0,0,0,0,0,0,0,0,0,0,0,0,0,0,0,0,0,0,0,0,0,0,0,0,0,0,0,0],"sum_hessian":[4.36416E5,3.54499E5,8.1917E4,2.56426E5,9.8073E4,6.2359E4,1.9558E4,1.8571E5,7.0716E4,3.4387E4,6.3686E4,3.8124E4,2.4235E4,1.7474E4,2.084E3,1.82998E5,2.712E3,5.4585E4,1.6131E4,3.2506E4,1.881E3,1.1516E4,5.217E4,2.984E4,8.284E3,6.991E3,1.7244E4,1.1128E4,6.346E3,3.9E1,2.045E3,1.82784E5,2.14E2,2.102E3,6.1E2,5.2638E4,1.947E3,9.42E2,1.5189E4,2.5081E4,7.425E3,1.405E3,4.76E2,5.462E3,6.054E3,3.4887E4,1.7283E4,4.71E2,2.9369E4,8.066E3,2.18E2,2.327E3,4.664E3,1.6398E4,8.46E2,1.0316E4,8.12E2,6.083E3,2.63E2,1.937E3,1.08E2,1.80818E5,1.966E3,3.3E1,1.81E2,1.131E3,9.71E2,2.77E2,3.33E2,2.6211E4,2.6427E4,1.852E3,9.5E1,9.21E2,2.1E1,8.41E2,1.4348E4,2.3606E4,1.475E3,7.124E3,3.01E2,1.019E3,3.86E2,3.1E1,4.45E2,4.931E3,5.31E2,2.163E3,3.891E3,2.8712E4,6.175E3,1.6421E4,8.62E2,4.67E2,4E0,2.036E4,9.009E3,6.833E3,1.233E3,1.24E2,9.4E1,1.53E3,7.97E2,2.185E3,2.479E3,1.6111E4,2.87E2,5.63E2,2.83E2,5.824E3,4.492E3,2.9E2,5.22E2,5.041E3,1.042E3,9.6E1,1.67E2,1.88E2,1.749E3,6E1,4.8E1],"tree_param":{"num_deleted":"0","num_feature":"87","num_nodes":"121","size_leaf_vector":"1"}},{"base_weights":[-2.5676822E-4,4.2228132E-1,-6.408372E-1,-2.7199107E-1,9.757159E-1,-3.806314E0,-4.7578153E-1,-1.960439E-1,-4.538377E0,1.0782351E0,-3.8163817E0,-4.0521226E0,4.4159617E0,-3.810202E-1,-4.873967E0,-1.9557418E-2,-2.1274974E0,-4.171533E0,-1.2533214E1,1.1035302E0,-1.406321E1,-5.9857426E0,4.113009E0,-2.7471762E0,-6.0311446E0,7.7561765E0,2.9945393E0,-2.6022655E-1,-2.6920998E0,-5.7089024E0,8.076782E0,4.417537E-1,-7.0020294E-1,-1.8462908E0,-8.68977E0,-4.8429933E0,-1.2782064E-1,-2.4659105E1,-7.676591E0,1.151096E0,-5.322801E0,-2.1295256E1,-3.4560277E0,-4.9572806E0,-9.811016E0,5.7348003E0,-5.1186852E0,-5.7073407E0,-2.1278894E0,-5.51172E0,-1.149395E1,8.506275E0,4.238702E0,2.5484905E0,4.0389233E0,-3.1989452E-1,6.7251663E0,-2.4710853E0,-6.4113545E0,-4.224982E0,-9.518691E0,8.297611E0,-2.6808624E0,-1.0853571E0,1.5957476E-1,-1.2754388E0,-1.5623407E-1,-5.4167086E-1,-6.1353555E0,-2.3113015E0,-5.9941025E0,-1.5183114E0,8.9516675E-1,6.8750376E-1,-1.0794497E0,-7.781524E0,-1.9894112E0,-3.3837192E0,-7.540073E-1,3.375672E-1,3.7586367E0,-1.678094E0,7.029469E0,-7.716477E0,-4.6572223E0,-1.383529E0,-6.0372868E0,-3.235758E0,-4.1919303E-1,1.7992507E0,-5.869419E0,1.1855707E-1,-2.0377676E0,-1.3939662E0,-2.0931323E0,-7.60698E-1,6.719581E-1,-1.7032348E0,3.211314E0,-2.721673E0,-4.160745E0,2.5920744E0,9.02916E-2,7.167052E-1,2.2380803E0,1.0046831E0,3.0657088E-3,-2.965454E-1,2.9148888E-2,1.1863811E0,2.485781E0,-5.4387254E-1,-1.173098E0,-1.5210334E0,-2.620079E0,-1.7547704E0,-7.42147E-1,-3.488271E0,-2.1556044E0,-1.7088394E0,2.5385766E0,-3.1873171E0,1.8468858E0],"categories":[],"categories_nodes":[],"categories_segments":[],"categories_sizes":[],"default_left":[0,0,0,0,0,0,0,0,0,0,0,0,0,0,0,0,0,0,0,0,0,0,0,0,0,0,0,0,0,0,0,0,0,0,0,0,0,0,0,0,0,0,0,0,0,0,0,0,0,0,0,0,0,0,0,0,0,0,0,0,0,0,0,0,0,0,0,0,0,0,0,0,0,0,0,0,0,0,0,0,0,0,0,0,0,0,0,0,0,0,0,0,0,0,0,0,0,0,0,0,0,0,0,0,0,0,0,0,0,0,0,0,0,0,0,0,0,0,0,0,0,0,0],"id":7,"left_children":[1,3,5,7,9,11,13,15,17,19,21,23,25,27,29,31,33,35,37,39,41,43,45,47,49,51,53,55,57,59,61,63,65,67,69,71,73,75,77,79,81,83,-1,85,87,89,91,93,95,97,99,101,103,105,-1,107,109,111,113,115,117,119,121,-1,-1,-1,-1,-1,-1,-1,-1,-1,-1,-1,-1,-1,-1,-1,-1,-1,-1,-1,-1,-1,-1,-1,-1,-1,-1,-1,-1,-1,-1,-1,-1,-1,-1,-1,-1,-1,-1,-1,-1,-1,-1,-1,-1,-1,-1,-1,-1,-1,-1,-1,-1,-1,-1,-1,-1,-1,-1,-1,-1],"loss_changes":[1.181251E5,1.01039664E5,9.062495E4,3.7793133E4,7.189E4,1.7391312E4,6.8708164E4,3.906496E4,5.9307383E3,5.4884297E4,5.274787E4,2.1539703E4,1.1637378E3,4.5051848E4,3.7643055E4,3.2971703E4,1.7690133E4,5.2994375E3,5.0519893E3,4.3723906E4,4.1503555E3,9.420859E3,9.895823E3,9.212477E3,9.345859E3,1.5918994E2,7.9218677E2,6.3926977E4,6.5733867E3,1.8429516E4,5.234951E2,2.2910955E4,2.7026818E4,6.934658E3,4.22975E3,2.871957E3,2.350869E3,4.0456934E2,1.1806782E3,4.1777E4,8.316242E3,1.1589492E3,0E0,9.858836E3,4.1597773E3,3.845879E3,9.164075E2,1.1394277E3,7.4201504E3,8.203828E3,1.5250117E3,6.3356445E1,7.1560486E1,3.4739795E2,0E0,4.240365E4,5.584383E3,7.1618906E3,1.3542148E3,6.6782227E3,4.4189297E3,5.241592E2,4.163974E2,0E0,0E0,0E0,0E0,0E0,0E0,0E0,0E0,0E0,0E0,0E0,0E0,0E0,0E0,0E0,0E0,0E0,0E0,0E0,0E0,0E0,0E0,0E0,0E0,0E0,0E0,0E0,0E0,0E0,0E0,0E0,0E0,0E0,0E0,0E0,0E0,0E0,0E0,0E0,0E0,0E0,0E0,0E0,0E0,0E0,0E0,0E0,0E0,0E0,0E0,0E0,0E0,0E0,0E0,0E0,0E0,0E0,0E0,0E0,0E0],"parents":[2147483647,0,0,1,1,2,2,3,3,4,4,5,5,6,6,7,7,8,8,9,9,10,10,11,11,12,12,13,13,14,14,15,15,16,16,17,17,18,18,19,19,20,20,21,21,22,22,23,23,24,24,25,25,26,26,27,27,28,28,29,29,30,30,31,31,32,32,33,33,34,34,35,35,36,36,37,37,38,38,39,39,40,40,41,41,43,43,44,44,45,45,46,46,47,47,48,48,49,49,50,50,51,51,52,52,53,53,55,55,56,56,57,57,58,58,59,59,60,60,61,61,62,62],"right_children":[2,4,6,8,10,12,14,16,18,20,22,24,26,28,30,32,34,36,38,40,42,44,46,48,50,52,54,56,58,60,62,64,66,68,70,72,74,76,78,80,82,84,-1,86,88,90,92,94,96,98,100,102,104,106,-1,108,110,112,114,116,118,120,122,-1,-1,-1,-1,-1,-1,-1,-1,-1,-1,-1,-1,-1,-1,-1,-1,-1,-1,-1,-1,-1,-1,-1,-1,-1,-1,-1,-1,-1,-1,-1,-1,-1,-1,-1,-1,-1,-1,-1,-1,-1,-1,-1,-1,-1,-1,-1,-1,-1,-1,-1,-1,-1,-1,-1,-1,-1,-1,-1,-1],"split_conditions":[1.2E1,6E0,1E0,1E0,1E0,2E0,1E0,7E0,1E0,2E0,1E0,1E0,1.4E1,3.7E1,1E0,7E0,1E0,1E0,1E0,1E0,1E0,2E0,1E0,1E0,2E0,1.7E1,1.3E1,4E0,3.2E1,2.1E1,2E0,2E0,4E0,1E0,3E0,3E0,1E0,1E0,1E0,2E0,2E0,2E0,-3.4560277E0,1E0,1E0,1E0,1E0,1.8E1,2E0,1.2E1,2E0,2E0,3E0,1.6E1,4.0389233E0,2E0,3E0,1E0,2.5E1,1E0,1E0,1E1,1E0,-1.0853571E0,1.5957476E-1,-1.2754388E0,-1.5623407E-1,-5.4167086E-1,-6.1353555E0,-2.3113015E0,-5.9941025E0,-1.5183114E0,8.9516675E-1,6.8750376E-1,-1.0794497E0,-7.781524E0,-1.9894112E0,-3.3837192E0,-7.540073E-1,3.375672E-1,3.7586367E0,-1.678094E0,7.029469E0,-7.716477E0,-4.6572223E0,-1.383529E0,-6.0372868E0,-3.235758E0,-4.1919303E-1,1.7992507E0,-5.869419E0,1.1855707E-1,-2.0377676E0,-1.3939662E0,-2.0931323E0,-7.60698E-1,6.719581E-1,-1.7032348E0,3.211314E0,-2.721673E0,-4.160745E0,2.5920744E0,9.02916E-2,7.167052E-1,2.2380803E0,1.0046831E0,3.0657088E-3,-2.965454E-1,2.9148888E-2,1.1863811E0,2.485781E0,-5.4387254E-1,-1.173098E0,-1.5210334E0,-2.620079E0,-1.7547704E0,-7.42147E-1,-3.488271E0,-2.1556044E0,-1.7088394E0,2.5385766E0,-3.1873171E0,1.8468858E0],"split_indices":[73,70,9,38,37,1,7,73,4,6,61,45,75,75,0,71,11,31,84,38,10,85,39,3,2,79,70,33,77,75,52,74,73,40,85,86,75,39,21,22,2,9,0,4,9,4,1,76,22,70,42,20,42,75,0,33,9,8,78,19,19,70,2,0,0,0,0,0,0,0,0,0,0,0,0,0,0,0,0,0,0,0,0,0,0,0,0,0,0,0,0,0,0,0,0,0,0,0,0,0,0,0,0,0,0,0,0,0,0,0,0,0,0,0,0,0,0,0,0,0,0,0,0],"split_type":[0,0,0,0,0,0,0,0,0,0,0,0,0,0,0,0,0,0,0,0,0,0,0,0,0,0,0,0,0,0,0,0,0,0,0,0,0,0,0,0,0,0,0,0,0,0,0,0,0,0,0,0,0,0,0,0,0,0,0,0,0,0,0,0,0,0,0,0,0,0,0,0,0,0,0,0,0,0,0,0,0,0,0,0,0,0,0,0,0,0,0,0,0,0,0,0,0,0,0,0,0,0,0,0,0,0,0,0,0,0,0,0,0,0,0,0,0,0,0,0,0,0,0],"sum_hessian":[4.36416E5,2.62962E5,1.73454E5,1.1664E5,1.46322E5,8.595E3,1.64859E5,1.14601E5,2.039E3,1.43258E5,3.064E3,8.346E3,2.49E2,1.61383E5,3.476E3,1.05007E5,9.594E3,1.951E3,8.8E1,1.4302E5,2.38E2,2.406E3,6.58E2,5.031E3,3.315E3,7.3E1,1.76E2,1.53368E5,8.015E3,3.266E3,2.1E2,6.2588E4,4.2419E4,9.201E3,3.93E2,1.673E3,2.78E2,2.4E1,6.4E1,1.4197E5,1.05E3,6E1,1.78E2,1.898E3,5.08E2,5.6E2,9.8E1,8.69E2,4.162E3,3.029E3,2.86E2,5.9E1,1.4E1,1.7E2,6E0,1.5207E5,1.298E3,7.567E3,4.48E2,2.352E3,9.14E2,2.06E2,4E0,1.359E3,6.1229E4,2.039E3,4.038E4,9.182E3,1.9E1,3.63E2,3E1,1.628E3,4.5E1,1.64E2,1.14E2,2.2E1,2E0,3.7E1,2.7E1,1.41649E5,3.21E2,1.041E3,9E0,3.2E1,2.8E1,1.857E3,4.1E1,4.55E2,5.3E1,5.55E2,5E0,2.3E1,7.5E1,4.76E2,3.93E2,3.807E3,3.55E2,2.999E3,3E1,1.44E2,1.42E2,5.8E1,1E0,1E1,4E0,1.29E2,4.1E1,5.8418E4,9.3652E4,4.69E2,8.29E2,5.194E3,2.373E3,2.86E2,1.62E2,1.219E3,1.133E3,4.78E2,4.36E2,2E0,2.04E2,2E0,2E0],"tree_param":{"num_deleted":"0","num_feature":"87","num_nodes":"123","size_leaf_vector":"1"}},{"base_weights":[-3.305118E-4,-1.859183E-1,8.0280036E-1,3.5381073E-1,-5.8306456E-1,1.1393634E0,-2.7030554E-1,-1.9084603E-1,8.8176084E-1,-3.6031735E-1,-2.159495E0,1.0623084E0,5.9544578E0,-2.9102042E0,4.8748747E-2,-4.7133207E-2,-3.7279167E0,8.1568235E-1,4.8200526E0,-7.120998E-1,3.007189E-1,-4.9872403E0,-1.435067E0,1.5709853E0,3.7865123E-1,4.9227843E0,1.0314123E1,-1.5379387E-1,-3.7577093E0,8.4442735E-1,-1.2801491E0,8.493833E-1,-4.4486383E-1,-2.4098964E0,-5.6446185E0,8.894753E-1,-1.557101E0,5.624669E0,2.2292135E0,-2.5584962E0,-4.6375686E-1,3.2249117E-1,-1.6184025E1,-5.545675E0,5.6793637E0,4.573394E0,-1.6348437E0,1.9678981E0,3.5709235E-1,-1.5910673E0,6.755032E-1,4.3770967E0,8.472243E0,9.189562E0,3.8153079E0,1.2647827E-1,-1.2548224E1,-3.5195467E0,-9.03602E0,9.9953353E-1,-5.618196E0,-7.250259E-1,-4.0932345E0,3.4777787E-1,-1.3632828E0,6.805814E-1,-1.6021423E-1,-7.6935536E-1,1.8186831E0,-2.846662E-1,-2.010051E0,2.091884E-1,5.266785E-1,-4.8775932E-1,3.142378E0,1.2516079E0,1.7104743E0,6.975374E-1,-1.1683723E0,-6.792916E-1,-2.01847E0,-7.738056E-2,-5.9274274E-1,1.02512136E-1,-3.8308322E0,-5.264887E0,-3.1060789E0,-1.4369062E0,-2.9935193E0,1.2900931E0,3.4336631E0,1.8936514E0,1.1400772E-1,-2.7411087E0,-4.2051107E-1,-1.2316146E0,6.06775E-1,5.1562005E-1,-1.8506607E-1,-6.682272E-1,1.902279E0,2.9075298E-1,-2.4229245E-1,1.2234117E0,2.105455E0,1.7922603E0,3.3301818E0,1.9813609E0,3.0410435E0,-2.435134E-1,8.376915E-1,-4.912509E0,-5.2726823E-1,-1.2008907E0,-5.098872E-1,-1.7988116E0,-4.4565864E0,3.8907036E-1,-7.382515E-1,-2.944429E0,-1.3732176E0,-3.3948858E0,-1.9520317E-1,-1.0918782E0,-2.6395316E0],"categories":[],"categories_nodes":[],"categories_segments":[],"categories_sizes":[],"default_left":[0,0,0,0,0,0,0,0,0,0,0,0,0,0,0,0,0,0,0,0,0,0,0,0,0,0,0,0,0,0,0,0,0,0,0,0,0,0,0,0,0,0,0,0,0,0,0,0,0,0,0,0,0,0,0,0,0,0,0,0,0,0,0,0,0,0,0,0,0,0,0,0,0,0,0,0,0,0,0,0,0,0,0,0,0,0,0,0,0,0,0,0,0,0,0,0,0,0,0,0,0,0,0,0,0,0,0,0,0,0,0,0,0,0,0,0,0,0,0,0,0,0,0,0,0],"id":8,"left_children":[1,3,5,7,9,11,13,15,17,19,21,23,25,27,29,31,33,35,37,39,41,43,45,47,49,51,53,55,57,59,61,63,65,67,69,71,73,75,77,79,81,83,85,87,89,91,93,95,97,99,101,103,105,107,-1,109,111,113,115,117,119,121,123,-1,-1,-1,-1,-1,-1,-1,-1,-1,-1,-1,-1,-1,-1,-1,-1,-1,-1,-1,-1,-1,-1,-1,-1,-1,-1,-1,-1,-1,-1,-1,-1,-1,-1,-1,-1,-1,-1,-1,-1,-1,-1,-1,-1,-1,-1,-1,-1,-1,-1,-1,-1,-1,-1,-1,-1,-1,-1,-1,-1,-1,-1],"loss_changes":[6.5048668E4,7.5987766E4,2.9586453E4,4.3211984E4,7.1712266E4,2.3130938E4,1.647412E4,3.7599418E4,1.9854195E4,4.161179E4,5.178707E4,2.134461E4,4.3660156E3,4.926199E3,1.8453344E4,2.5345875E4,7.282211E3,1.3142234E4,2.6120117E3,5.3552113E4,2.231257E4,3.0743734E4,2.416932E4,1.6955617E4,1.5313E4,1.5046855E3,3.8858398E2,1.7280723E3,1.9958906E3,1.0947736E4,1.0203707E4,3.651461E4,1.1916651E4,2.259539E3,5.822582E3,1.2114273E4,1.8901255E3,8.346875E1,1.8525732E2,1.6969633E4,3.2037635E4,1.5620064E4,4.711836E2,1.6372516E4,1.9944111E3,4.722384E3,3.406239E4,8.816422E3,1.1503281E4,1.7327318E4,9.913262E3,5.179453E2,6.230879E2,2.5382617E2,0E0,1.2202782E3,4.2545105E2,1.3524727E3,1.1315693E3,1.0973387E4,1.0732319E3,4.292093E3,2.2668047E3,0E0,0E0,0E0,0E0,0E0,0E0,0E0,0E0,0E0,0E0,0E0,0E0,0E0,0E0,0E0,0E0,0E0,0E0,0E0,0E0,0E0,0E0,0E0,0E0,0E0,0E0,0E0,0E0,0E0,0E0,0E0,0E0,0E0,0E0,0E0,0E0,0E0,0E0,0E0,0E0,0E0,0E0,0E0,0E0,0E0,0E0,0E0,0E0,0E0,0E0,0E0,0E0,0E0,0E0,0E0,0E0,0E0,0E0,0E0,0E0,0E0,0E0],"parents":[2147483647,0,0,1,1,2,2,3,3,4,4,5,5,6,6,7,7,8,8,9,9,10,10,11,11,12,12,13,13,14,14,15,15,16,16,17,17,18,18,19,19,20,20,21,21,22,22,23,23,24,24,25,25,26,26,27,27,28,28,29,29,30,30,31,31,32,32,33,33,34,34,35,35,36,36,37,37,38,38,39,39,40,40,41,41,42,42,43,43,44,44,45,45,46,46,47,47,48,48,49,49,50,50,51,51,52,52,53,53,55,55,56,56,57,57,58,58,59,59,60,60,61,61,62,62],"right_children":[2,4,6,8,10,12,14,16,18,20,22,24,26,28,30,32,34,36,38,40,42,44,46,48,50,52,54,56,58,60,62,64,66,68,70,72,74,76,78,80,82,84,86,88,90,92,94,96,98,100,102,104,106,108,-1,110,112,114,116,118,120,122,124,-1,-1,-1,-1,-1,-1,-1,-1,-1,-1,-1,-1,-1,-1,-1,-1,-1,-1,-1,-1,-1,-1,-1,-1,-1,-1,-1,-1,-1,-1,-1,-1,-1,-1,-1,-1,-1,-1,-1,-1,-1,-1,-1,-1,-1,-1,-1,-1,-1,-1,-1,-1,-1,-1,-1,-1,-1,-1,-1,-1,-1,-1],"split_conditions":[1E0,1E0,1E0,1E0,1E0,1E0,1E0,1E0,2E0,1E0,2E0,2E0,1E0,1E0,8E0,6E0,1E0,9E0,1E0,1E0,1E0,1E0,3E0,1E0,7E0,1E0,1E0,1E0,1E0,2E0,1E0,1E0,5E0,1E0,5E0,1E0,1E0,1E1,1E0,3E0,1E0,1E0,2E0,1E0,2E0,1E0,3E0,1E0,6E0,2E0,2.1E1,1E1,1E0,2E0,3.8153079E0,2E0,2E0,2E0,9E0,1E1,1E0,3E0,9E0,3.4777787E-1,-1.3632828E0,6.805814E-1,-1.6021423E-1,-7.6935536E-1,1.8186831E0,-2.846662E-1,-2.010051E0,2.091884E-1,5.266785E-1,-4.8775932E-1,3.142378E0,1.2516079E0,1.7104743E0,6.975374E-1,-1.1683723E0,-6.792916E-1,-2.01847E0,-7.738056E-2,-5.9274274E-1,1.02512136E-1,-3.8308322E0,-5.264887E0,-3.1060789E0,-1.4369062E0,-2.9935193E0,1.2900931E0,3.4336631E0,1.8936514E0,1.1400772E-1,-2.7411087E0,-4.2051107E-1,-1.2316146E0,6.06775E-1,5.1562005E-1,-1.8506607E-1,-6.682272E-1,1.902279E0,2.9075298E-1,-2.4229245E-1,1.2234117E0,2.105455E0,1.7922603E0,3.3301818E0,1.9813609E0,3.0410435E0,-2.435134E-1,8.376915E-1,-4.912509E0,-5.2726823E-1,-1.2008907E0,-5.098872E-1,-1.7988116E0,-4.4565864E0,3.8907036E-1,-7.382515E-1,-2.944429E0,-1.3732176E0,-3.3948858E0,-1.9520317E-1,-1.0918782E0,-2.6395316E0],"split_indices":[1,75,13,9,84,41,78,45,33,44,85,18,31,33,69,71,86,70,8,33,40,0,76,11,70,22,9,11,22,13,8,11,76,61,76,23,12,70,55,77,8,13,14,35,7,20,73,8,73,1,75,75,86,85,0,35,18,85,69,77,77,75,77,0,0,0,0,0,0,0,0,0,0,0,0,0,0,0,0,0,0,0,0,0,0,0,0,0,0,0,0,0,0,0,0,0,0,0,0,0,0,0,0,0,0,0,0,0,0,0,0,0,0,0,0,0,0,0,0,0,0,0,0,0,0],"split_type":[0,0,0,0,0,0,0,0,0,0,0,0,0,0,0,0,0,0,0,0,0,0,0,0,0,0,0,0,0,0,0,0,0,0,0,0,0,0,0,0,0,0,0,0,0,0,0,0,0,0,0,0,0,0,0,0,0,0,0,0,0,0,0,0,0,0,0,0,0,0,0,0,0,0,0,0,0,0,0,0,0,0,0,0,0,0,0,0,0,0,0,0,0,0,0,0,0,0,0,0,0,0,0,0,0,0,0,0,0,0,0,0,0,0,0,0,0,0,0,0,0,0,0,0,0],"sum_hessian":[4.36416E5,3.54499E5,8.1917E4,1.50274E5,2.04225E5,6.2359E4,1.9558E4,7.3967E4,7.6307E4,1.78942E5,2.5283E4,6.1378E4,9.81E2,2.108E3,1.745E4,7.108E4,2.887E3,7.5049E4,1.258E3,1.1679E5,6.2152E4,5.155E3,2.0128E4,3.5192E4,2.6186E4,7.95E2,1.86E2,4.96E2,1.612E3,1.0915E4,6.535E3,2.1843E4,4.9237E4,1.712E3,1.175E3,7.2786E4,2.263E3,9.59E2,2.99E2,1.3845E4,1.02945E5,6.2071E4,8.1E1,4.899E3,2.56E2,6.47E2,1.9481E4,2.652E4,8.672E3,3.429E3,2.2757E4,6.91E2,1.04E2,1.3E2,5.6E1,4.86E2,1E1,1.544E3,6.8E1,1.066E4,2.55E2,5.459E3,1.076E3,2.0657E4,1.186E3,1.566E3,4.7671E4,1.682E3,3E1,2.16E2,9.59E2,5.957E4,1.3216E4,2.251E3,1.2E1,5.1E1,9.08E2,2.95E2,4E0,1.2934E4,9.11E2,9.0612E4,1.2333E4,6.1981E4,9E1,6.4E1,1.7E1,4.187E3,7.12E2,2.08E2,4.8E1,4.57E2,1.9E2,5.86E2,1.8895E4,2.36E2,2.6284E4,3.616E3,5.056E3,3.175E3,2.54E2,1.8996E4,3.761E3,6.23E2,6.8E1,5.5E1,4.9E1,3.7E1,9.3E1,3.6E2,1.26E2,7E0,3E0,1.219E3,3.25E2,4.6E1,2.2E1,9.817E3,8.43E2,4.9E1,2.06E2,3.7E1,5.422E3,9.83E2,9.3E1],"tree_param":{"num_deleted":"0","num_feature":"87","num_nodes":"125","size_leaf_vector":"1"}},{"base_weights":[-2.7440654E-4,9.152505E-2,-1.1771324E0,6.6089585E-2,4.0495334E0,-1.0442486E0,-5.085957E0,1.2791611E-1,-3.977425E0,3.0670528E0,5.6241546E0,-1.133282E0,3.9995308E0,-6.394115E0,4.788364E0,1.5773651E-1,-3.2979352E0,-3.0726438E0,-8.309826E0,2.621083E0,8.7798195E0,5.3017583E0,8.544187E0,-1.0220351E0,-4.669937E0,3.6892812E0,7.609843E0,-7.69274E0,-4.9625993E0,4.2453084E0,4.3739643E0,3.890586E-1,-2.7713203E-1,-3.78655E0,1.3182095E0,-2.0937917E0,-4.4771204E0,-9.546645E0,-1.6480987E0,2.7422361E0,-6.8392897E0,1.0146817E1,4.7483783E0,5.353328E0,-3.5500214E0,4.8455896E0,5.82174E0,-6.857067E-1,-2.0405643E0,-8.995896E0,-3.3765638E0,3.9788773E0,1.0017158E0,2.306723E0,6.6607594E-1,-7.882671E0,4.474767E0,-4.599755E0,-1.1045134E1,1.6842152E0,5.1090856E0,1.0644693E-1,1.0897317E0,-5.6584783E-2,-4.8396862E-1,-9.0063304E-1,-1.9804934E0,2.451028E-1,5.1524034E0,-2.8026864E-1,-1.1319839E0,-4.6966195E0,-1.3012581E0,-2.3823452E0,-4.2938013E0,-1.9321729E-1,-5.1438985E0,7.6245785E-1,1.521319E0,-2.7644298E0,4.9649873E-1,3.0889611E0,7.8669745E-1,1.5381881E0,-9.92862E-1,1.8136995E0,1.3215777E0,7.0608073E-1,1.9396238E0,-1.9838102E-1,-3.5354989E0,-4.8439002E-1,-9.6087E-1,-2.119106E0,-5.351812E0,-9.4150037E-1,-6.443219E0,1.6329873E0,9.9515593E-1,-2.1305656E-2,1.1065876E0,-2.3129063E0,-6.009832E0,2.5002832E0,-3.381271E0,-1.4686251E0,4.4973773E-1,-3.5628486E0,1.2102768E0,6.673332E-1,-1.2298204E0,1.2833941E0,1.6613284E0],"categories":[],"categories_nodes":[],"categories_segments":[],"categories_sizes":[],"default_left":[0,0,0,0,0,0,0,0,0,0,0,0,0,0,0,0,0,0,0,0,0,0,0,0,0,0,0,0,0,0,0,0,0,0,0,0,0,0,0,0,0,0,0,0,0,0,0,0,0,0,0,0,0,0,0,0,0,0,0,0,0,0,0,0,0,0,0,0,0,0,0,0,0,0,0,0,0,0,0,0,0,0,0,0,0,0,0,0,0,0,0,0,0,0,0,0,0,0,0,0,0,0,0,0,0,0,0,0,0,0,0,0,0],"id":9,"left_children":[1,3,5,7,9,11,13,15,17,19,21,23,25,27,29,31,33,35,37,39,41,43,45,47,49,51,53,55,57,59,-1,61,63,65,67,69,71,73,75,77,79,81,83,85,-1,-1,87,89,91,93,95,97,99,-1,-1,101,103,105,107,109,111,-1,-1,-1,-1,-1,-1,-1,-1,-1,-1,-1,-1,-1,-1,-1,-1,-1,-1,-1,-1,-1,-1,-1,-1,-1,-1,-1,-1,-1,-1,-1,-1,-1,-1,-1,-1,-1,-1,-1,-1,-1,-1,-1,-1,-1,-1,-1,-1,-1,-1,-1,-1],"loss_changes":[4.7148387E4,4.0756406E4,1.6397438E4,1.0056283E5,3.981832E3,1.3719867E4,1.3438645E4,4.0476215E4,2.372107E4,4.0380547E3,8.885781E2,1.1803594E4,5.655762E2,1.6665312E3,5.8681885E2,3.951169E4,7.7166016E3,6.882375E3,8.602641E3,1.7150645E3,5.8558105E2,8.551113E2,1.9150088E3,9.966764E3,5.089121E3,3.7738525E2,4.3676758E-1,1.1422324E3,9.180742E2,2.5022412E2,0E0,2.8468492E4,1.6129531E4,6.808164E3,2.5926711E3,5.7532E3,3.1434414E3,6.63525E3,2.5564985E3,6.704785E2,3.9863177E2,6.8756836E1,1.1162036E2,5.601738E2,0E0,0E0,1.477439E2,5.9258887E3,3.57075E3,3.4623516E3,2.9769736E3,4.1023682E2,1.4149667E2,0E0,0E0,8.3758594E2,5.8009937E2,7.5747266E2,3.4866528E2,1.0597763E2,7.30542E0,0E0,0E0,0E0,0E0,0E0,0E0,0E0,0E0,0E0,0E0,0E0,0E0,0E0,0E0,0E0,0E0,0E0,0E0,0E0,0E0,0E0,0E0,0E0,0E0,0E0,0E0,0E0,0E0,0E0,0E0,0E0,0E0,0E0,0E0,0E0,0E0,0E0,0E0,0E0,0E0,0E0,0E0,0E0,0E0,0E0,0E0,0E0,0E0,0E0,0E0,0E0,0E0],"parents":[2147483647,0,0,1,1,2,2,3,3,4,4,5,5,6,6,7,7,8,8,9,9,10,10,11,11,12,12,13,13,14,14,15,15,16,16,17,17,18,18,19,19,20,20,21,21,22,22,23,23,24,24,25,25,26,26,27,27,28,28,29,29,31,31,32,32,33,33,34,34,35,35,36,36,37,37,38,38,39,39,40,40,41,41,42,42,43,43,46,46,47,47,48,48,49,49,50,50,51,51,52,52,55,55,56,56,57,57,58,58,59,59,60,60],"right_children":[2,4,6,8,10,12,14,16,18,20,22,24,26,28,30,32,34,36,38,40,42,44,46,48,50,52,54,56,58,60,-1,62,64,66,68,70,72,74,76,78,80,82,84,86,-1,-1,88,90,92,94,96,98,100,-1,-1,102,104,106,108,110,112,-1,-1,-1,-1,-1,-1,-1,-1,-1,-1,-1,-1,-1,-1,-1,-1,-1,-1,-1,-1,-1,-1,-1,-1,-1,-1,-1,-1,-1,-1,-1,-1,-1,-1,-1,-1,-1,-1,-1,-1,-1,-1,-1,-1,-1,-1,-1,-1,-1,-1,-1,-1],"split_conditions":[2.1E1,1E0,1E0,1E0,2E0,1E0,1E0,1E0,1E0,1E0,1E0,1E0,1E0,1E0,5E0,2E0,8E0,6E0,2E0,1E0,1E0,3E0,1E0,3.2E1,2E0,1E0,4.3E1,1E0,2E0,3E0,4.3739643E0,3E0,1E0,1E0,2E0,1E0,3E0,1E0,2E0,3E0,3E0,2E0,1E0,6E0,-3.5500214E0,4.8455896E0,2E0,1E0,1E1,1E0,2E0,3E1,1E0,2.306723E0,6.6607594E-1,1E0,1E0,5E0,7E0,2E0,1.5E1,1.0644693E-1,1.0897317E0,-5.6584783E-2,-4.8396862E-1,-9.0063304E-1,-1.9804934E0,2.451028E-1,5.1524034E0,-2.8026864E-1,-1.1319839E0,-4.6966195E0,-1.3012581E0,-2.3823452E0,-4.2938013E0,-1.9321729E-1,-5.1438985E0,7.6245785E-1,1.521319E0,-2.7644298E0,4.9649873E-1,3.0889611E0,7.8669745E-1,1.5381881E0,-9.92862E-1,1.8136995E0,1.3215777E0,7.0608073E-1,1.9396238E0,-1.9838102E-1,-3.5354989E0,-4.8439002E-1,-9.6087E-1,-2.119106E0,-5.351812E0,-9.4150037E-1,-6.443219E0,1.6329873E0,9.9515593E-1,-2.1305656E-2,1.1065876E0,-2.3129063E0,-6.009832E0,2.5002832E0,-3.381271E0,-1.4686251E0,4.4973773E-1,-3.5628486E0,1.2102768E0,6.673332E-1,-1.2298204E0,1.2833941E0,1.6613284E0],"split_indices":[75,0,7,7,33,41,0,38,35,1,61,11,14,19,33,51,69,78,84,21,10,7,66,78,79,22,80,4,7,74,0,33,77,8,2,15,76,6,8,10,76,52,15,80,0,0,8,40,77,22,22,75,21,0,0,40,16,33,33,7,70,0,0,0,0,0,0,0,0,0,0,0,0,0,0,0,0,0,0,0,0,0,0,0,0,0,0,0,0,0,0,0,0,0,0,0,0,0,0,0,0,0,0,0,0,0,0,0,0,0,0,0,0],"split_type":[0,0,0,0,0,0,0,0,0,0,0,0,0,0,0,0,0,0,0,0,0,0,0,0,0,0,0,0,0,0,0,0,0,0,0,0,0,0,0,0,0,0,0,0,0,0,0,0,0,0,0,0,0,0,0,0,0,0,0,0,0,0,0,0,0,0,0,0,0,0,0,0,0,0,0,0,0,0,0,0,0,0,0,0,0,0,0,0,0,0,0,0,0,0,0,0,0,0,0,0,0,0,0,0,0,0,0,0,0,0,0,0,0],"sum_hessian":[4.36416E5,4.04838E5,3.1578E4,4.02254E5,2.584E3,3.0541E4,1.037E3,3.96197E5,6.057E3,1.593E3,9.91E2,3.0012E4,5.29E2,9.16E2,1.21E2,3.92779E5,3.418E3,5.012E3,1.045E3,1.479E3,1.14E2,8.95E2,9.6E1,2.9098E4,9.14E2,4.89E2,4E1,4.78E2,4.38E2,1.16E2,5E0,2.56394E5,1.36385E5,3.091E3,3.27E2,2.955E3,2.057E3,8.81E2,1.64E2,1.461E3,1.8E1,8.4E1,3E1,8.93E2,2E0,2.4E1,7.2E1,2.1876E4,7.222E3,2.09E2,7.05E2,4.41E2,4.8E1,3.9E1,1E0,4.71E2,7E0,4.15E2,2.3E1,3E1,8.6E1,2.53717E5,2.677E3,1.27912E5,8.473E3,2.419E3,6.72E2,3.18E2,9E0,1.749E3,1.206E3,2.4E1,2.033E3,6.61E2,2.2E2,1.55E2,9E0,1.347E3,1.14E2,1.4E1,4E0,8.2E1,2E0,2.9E1,1E0,5.13E2,3.8E2,1.2E1,6E1,2.1829E4,4.7E1,5.287E3,1.935E3,1.73E2,3.6E1,6.97E2,8E0,1.35E2,3.06E2,3.5E1,1.3E1,4.66E2,5E0,6E0,1E0,3.96E2,1.9E1,2.2E1,1E0,2.8E1,2E0,3.3E1,5.3E1],"tree_param":{"num_deleted":"0","num_feature":"87","num_nodes":"113","size_leaf_vector":"1"}}]},"name":"gbtree"},"learner_model_param":{"base_score":"9.461015E1","boost_from_average":"1","num_class":"0","num_feature":"87","num_target":"1"},"objective":{"name":"reg:squarederror","reg_loss_param":{"scale_pos_weight":"1"}}},"version":[2,0,3]}